 float weights0[28][28] = { 0.000000,0.000000,0.000000,0.000000,0.000000,0.000000,0.000000,0.000000,0.002051,-0.000008,-0.000017,-0.000009,-0.000002,-0.000000,-0.000060,-0.000020,-0.000002,0.000000,-0.000014,-0.000000,0.000000,-0.000000,-0.000000,0.000000,0.000000,0.000000,0.000000,0.000000,0.000000,0.000000,0.000000,0.000000,-0.000000,0.000000,-0.000002,-0.000131,-0.000259,-0.000670,-0.001068,0.000186,-0.000150,0.000546,-0.000029,-0.000049,-0.000025,-0.000056,-0.000013,0.001317,0.003372,-0.000061,-0.000000,0.000000,0.000000,0.000000,0.000000,0.000000,0.000000,0.000000,-0.000000,-0.000000,-0.000009,-0.000106,-0.000503,-0.000269,-0.000595,-0.000899,0.002927,-0.002289,-0.002666,-0.002046,-0.001290,-0.000927,-0.001584,-0.003297,-0.003779,-0.002971,-0.002524,-0.003841,-0.001593,-0.000404,-0.001042,-0.000009,0.000000,0.000000,0.000000,0.000000,0.000276,0.000608,-0.000093,-0.000911,-0.001478,-0.003117,-0.006190,-0.007993,-0.012123,-0.014698,-0.016587,-0.014094,-0.022291,-0.028656,-0.030828,-0.040680,-0.058345,-0.049224,-0.039909,-0.028306,-0.020934,-0.009022,-0.001961,-0.000101,0.000000,0.000000,0.000000,-0.000000,0.000095,-0.001863,-0.003249,-0.008573,-0.014377,-0.024887,-0.040594,-0.042643,-0.043322,-0.079615,-0.081179,-0.057611,-0.038564,-0.000653,0.014660,0.005836,-0.021366,-0.033765,-0.017287,-0.033186,-0.066534,-0.044860,-0.008930,-0.002166,-0.000361,-0.000001,0.000000,-0.000000,-0.000045,-0.011008,-0.019870,-0.028791,-0.022733,-0.026412,-0.050576,-0.058154,-0.052789,-0.072679,-0.025196,0.004634,0.084744,0.148303,0.192566,0.181228,0.117871,0.086501,0.105076,0.056479,-0.010180,-0.054451,-0.025523,-0.007624,-0.001827,-0.000024,0.000000,-0.000003,-0.001754,-0.014335,-0.025161,-0.030618,-0.027862,-0.037864,-0.058044,-0.070591,-0.060267,-0.025062,0.058887,0.121328,0.150137,0.144137,0.203818,0.200917,0.164630,0.157540,0.136829,0.117065,0.072425,-0.021042,-0.040359,-0.023117,-0.004303,-0.000045,0.000000,-0.000029,-0.001865,-0.018444,-0.020499,-0.038664,-0.046798,-0.069220,-0.076654,-0.066132,-0.051032,-0.011600,0.045741,0.152945,0.229036,0.226097,0.181637,0.157271,0.131425,0.139392,0.117524,0.115399,0.121261,0.046143,-0.064878,-0.043538,-0.009499,-0.000108,0.000000,-0.000276,-0.004131,-0.011518,-0.013100,-0.044346,-0.066478,-0.096575,-0.060799,-0.053727,-0.045858,-0.016168,-0.003276,0.085581,0.164375,0.196940,0.202536,0.132047,0.148995,0.143130,0.102746,0.061748,0.136794,0.095330,-0.054836,-0.074005,-0.019247,-0.000317,0.000000,-0.000590,-0.007085,-0.023410,-0.006614,-0.034151,-0.082276,-0.028622,0.006162,0.008557,-0.017674,-0.067458,-0.018521,0.076813,0.161372,0.210949,0.206002,0.196113,0.195925,0.185396,0.180868,0.104043,0.143447,0.148412,-0.049893,-0.114456,-0.037287,-0.000876,0.000000,-0.000848,-0.007721,-0.023041,-0.009926,0.018530,-0.006302,0.025672,0.052540,0.062054,-0.040517,-0.048860,0.000571,0.093855,0.127290,0.221624,0.211653,0.232059,0.256930,0.272590,0.294062,0.216468,0.169704,0.210947,-0.042830,-0.149862,-0.036418,-0.001241,0.000000,0.003382,-0.009509,-0.010393,-0.012395,0.021417,0.026230,0.070077,0.045104,0.001812,-0.001364,-0.043492,0.034441,0.112443,0.127839,0.055426,0.008381,-0.004278,0.031518,0.188958,0.305998,0.257746,0.200781,0.248612,-0.030278,-0.156135,-0.031741,-0.001772,-0.000000,0.007249,-0.012171,-0.026025,-0.042814,0.020895,0.055754,0.071402,0.077001,0.033759,0.017484,-0.027821,0.062385,0.036996,-0.049528,-0.203500,-0.299080,-0.272125,-0.235245,0.030994,0.214472,0.185132,0.188842,0.258519,0.032678,-0.169883,-0.025829,-0.003193,-0.000003,0.002841,-0.021541,-0.023125,-0.016550,0.122885,0.131746,0.077020,0.051060,0.095512,0.034797,-0.055240,-0.109173,-0.293156,-0.360907,-0.503190,-0.550868,-0.501474,-0.403704,-0.143228,0.075134,0.087284,0.236690,0.242124,0.035272,-0.153135,-0.037296,-0.005067,-0.000002,-0.001063,-0.033949,-0.041367,-0.030887,0.147482,0.120552,0.062266,0.104417,0.043513,-0.056592,-0.273903,-0.432919,-0.519590,-0.549932,-0.606744,-0.567326,-0.510762,-0.365086,-0.155192,0.000677,0.032582,0.142981,0.194928,-0.002813,-0.147542,-0.046866,-0.007266,-0.000000,0.002138,-0.039887,-0.055739,-0.005921,0.145242,0.101441,0.083224,0.159838,0.036697,-0.139278,-0.401488,-0.556172,-0.597494,-0.576188,-0.564770,-0.456364,-0.323835,-0.202319,-0.093459,0.015037,0.009531,0.094797,0.110249,-0.064787,-0.141435,-0.042135,-0.007319,0.000000,0.007481,-0.034519,-0.063408,-0.044645,0.122429,0.155863,0.147461,0.270359,0.115344,-0.108139,-0.379212,-0.479402,-0.507523,-0.502490,-0.400436,-0.267046,-0.116599,-0.069768,-0.049458,-0.023413,-0.015551,0.038817,0.002244,-0.112238,-0.120467,-0.035726,-0.006059,0.000000,0.003342,-0.027027,-0.084586,-0.051711,0.161412,0.211542,0.209455,0.211146,0.192190,0.079629,-0.137989,-0.232530,-0.265050,-0.211877,-0.177751,-0.054725,0.031058,-0.003833,-0.001841,-0.026398,-0.077733,-0.007660,-0.052608,-0.128578,-0.110466,-0.030019,-0.002907,0.000000,-0.000697,-0.020785,-0.109815,-0.074704,0.116104,0.207435,0.204412,0.161213,0.191711,0.168135,-0.009351,-0.056194,-0.086616,-0.078070,-0.033749,0.018351,0.015424,-0.005172,-0.006010,-0.081604,-0.099343,-0.086890,-0.151713,-0.140691,-0.085164,-0.021078,-0.003360,0.000000,-0.000283,-0.019575,-0.106400,-0.082058,0.039671,0.115108,0.124219,0.102731,0.168451,0.136867,0.105363,0.028311,-0.066588,-0.077549,-0.007487,0.034483,0.036725,0.009906,-0.033504,-0.078034,-0.099407,-0.100175,-0.159877,-0.117873,-0.054726,-0.008899,-0.002543,0.000000,-0.000190,-0.013007,-0.073789,-0.068822,0.001880,0.070717,0.036424,0.069483,0.100356,0.141635,0.123572,0.039107,-0.077125,-0.015796,0.057044,0.075323,0.056765,0.005905,0.005074,-0.027185,-0.047217,-0.101515,-0.134768,-0.089359,-0.043014,-0.009980,-0.002445,0.000000,-0.000081,-0.006391,-0.051410,-0.056495,0.020106,0.117850,0.067513,0.049794,0.029595,0.098878,0.163757,0.137812,0.104879,0.126083,0.103679,0.104074,0.050131,0.045394,0.034587,0.006219,-0.043684,-0.076413,-0.075721,-0.063768,-0.033334,-0.011562,-0.002321,0.000000,-0.000009,-0.002812,-0.033905,-0.052560,-0.017510,0.101408,0.122329,0.144759,0.128497,0.186819,0.226433,0.285126,0.262675,0.212991,0.186771,0.148004,0.115122,0.078175,0.042066,-0.009751,-0.036321,-0.033118,-0.034757,-0.029773,-0.013404,-0.005474,-0.005914,0.000000,-0.000000,-0.001552,-0.020001,-0.056028,-0.082141,-0.038285,0.067853,0.177586,0.232725,0.282027,0.279699,0.321844,0.324515,0.279401,0.231716,0.149402,0.064318,0.019299,-0.010074,-0.041824,-0.026643,-0.008872,-0.011790,-0.010005,-0.003673,-0.000366,-0.001360,0.000000,0.000000,-0.000705,-0.011075,-0.047013,-0.090574,-0.131137,-0.091240,-0.028661,0.049092,0.105977,0.170061,0.219635,0.186984,0.172329,0.129824,0.044171,0.003133,-0.021120,-0.018969,-0.024928,-0.017394,-0.008347,-0.009681,-0.002382,-0.001166,-0.000002,0.000000,0.000000,0.000000,-0.000031,-0.003836,-0.011698,-0.036459,-0.081369,-0.102563,-0.106505,-0.102950,-0.089733,-0.040160,0.001700,0.020470,0.011065,-0.008857,-0.025921,-0.015798,-0.013083,-0.014294,-0.011304,-0.004879,-0.002496,-0.001492,-0.000136,-0.000001,-0.000003,0.000000,0.000000,0.000000,0.000000,-0.000784,-0.001191,-0.009969,-0.034821,-0.034489,-0.030399,-0.031177,-0.033094,-0.018448,-0.009738,-0.003301,-0.002232,-0.004004,-0.009850,-0.004852,-0.003261,-0.003605,-0.000917,0.003301,0.000357,-0.000013,-0.000001,-0.000001,0.000000,0.000000,0.000000,0.000000,0.000000,0.000000,-0.000023,-0.002454,-0.007802,-0.002876,-0.001528,-0.000597,-0.000352,-0.000193,-0.000081,-0.000691,-0.000051,-0.000664,-0.000853,0.003461,-0.001943,-0.000758,-0.000001,0.000004,0.000008,0.000000,0.000000,0.000000,0.000000,0.000000};
 float weights1[28][28] = { 0.000000,0.000000,0.000000,0.000000,0.000000,0.000000,0.000000,0.000000,-0.000000,-0.000002,-0.000003,-0.000001,-0.000000,0.000011,-0.000001,-0.000000,-0.000000,0.000000,-0.000002,0.000013,0.000000,0.000017,0.000017,0.000000,0.000000,0.000000,0.000000,0.000000,0.000000,0.000000,0.000000,0.000000,-0.000000,0.000000,-0.000001,-0.000107,-0.000167,-0.000485,-0.000533,-0.000213,-0.000106,-0.000005,-0.000001,-0.000001,0.000048,0.000121,0.000020,0.000033,-0.000029,-0.000015,0.000005,0.000000,0.000000,0.000000,0.000000,0.000000,0.000000,0.000000,-0.000000,0.000119,0.000407,0.000033,-0.001819,-0.001398,-0.000867,-0.001039,-0.001017,-0.000323,-0.000416,-0.000059,0.000074,0.000577,0.000582,-0.000146,-0.000724,-0.001020,-0.003903,-0.005966,-0.005789,-0.000216,-0.000012,-0.000000,0.000000,0.000000,0.000000,0.000000,-0.000000,0.000028,0.000025,0.001310,0.001488,-0.001849,-0.001454,-0.002384,-0.007237,-0.004737,0.000097,0.001206,0.001974,0.001865,-0.001634,-0.004038,-0.005317,-0.007152,-0.013048,-0.009464,-0.006475,-0.004260,-0.002547,-0.000474,0.000000,0.000000,0.000000,-0.000000,-0.000001,-0.000012,0.000882,0.002469,0.002156,-0.004563,-0.010929,-0.015847,-0.011667,-0.004014,0.001484,-0.000782,0.000568,-0.003224,-0.007260,-0.017507,-0.034073,-0.044941,-0.034543,0.008911,0.040262,0.026664,-0.005605,-0.008037,-0.000651,-0.000001,0.000000,-0.000000,-0.000001,-0.000299,0.006870,0.013186,-0.013919,-0.043816,-0.045243,-0.060132,-0.053485,-0.031262,-0.025985,-0.023424,-0.025886,-0.035377,-0.054014,-0.103640,-0.138409,-0.159368,-0.091614,0.091784,0.203461,0.147930,0.029335,-0.018596,-0.001503,-0.000002,0.000000,-0.000000,-0.000072,-0.001267,-0.001055,-0.009343,-0.047526,-0.096758,-0.110453,-0.098706,-0.094805,-0.083169,-0.051663,-0.043977,-0.048291,-0.078085,-0.132152,-0.200031,-0.258187,-0.189460,-0.040644,0.122086,0.219007,0.184573,0.032694,-0.032453,-0.002732,-0.000003,0.000000,-0.000026,-0.001100,-0.008218,-0.022204,-0.057306,-0.103603,-0.141988,-0.149973,-0.115707,-0.107065,-0.105338,-0.073247,-0.070923,-0.077244,-0.099377,-0.159631,-0.217443,-0.237182,-0.117198,0.001563,0.112438,0.159249,0.127075,-0.018432,-0.053473,-0.003924,-0.000004,0.000000,-0.001278,-0.006382,-0.020638,-0.036569,-0.112114,-0.171806,-0.238232,-0.235449,-0.176356,-0.129896,-0.125950,-0.113331,-0.079287,-0.088908,-0.125208,-0.179624,-0.187029,-0.110710,-0.047746,0.059900,0.127146,0.107952,0.036579,-0.088561,-0.058753,-0.007052,-0.000014,0.000000,-0.001426,-0.010368,-0.030670,-0.043866,-0.124493,-0.206710,-0.256062,-0.282987,-0.229172,-0.178548,-0.172452,-0.152201,-0.170354,-0.208183,-0.235395,-0.187110,-0.119983,-0.019923,0.011666,0.062551,0.091234,0.073255,-0.005745,-0.138359,-0.087628,-0.009213,-0.000176,0.000000,-0.000902,-0.008631,-0.039642,-0.038574,-0.079854,-0.152843,-0.222565,-0.256220,-0.191492,-0.134992,-0.167431,-0.242864,-0.352873,-0.402534,-0.337630,-0.145232,-0.023731,-0.049968,-0.029479,0.069517,0.078657,-0.035252,-0.093886,-0.210257,-0.149219,-0.018313,-0.001705,0.000000,-0.000188,-0.008034,-0.065231,-0.043120,-0.050319,-0.098545,-0.204522,-0.200726,-0.129054,-0.093271,-0.179110,-0.315433,-0.420763,-0.422123,-0.220606,-0.103107,-0.054611,-0.021859,0.008741,0.052547,-0.084712,-0.212633,-0.172478,-0.242033,-0.148270,-0.019003,-0.000620,-0.000001,-0.000275,0.002374,-0.043613,0.029460,0.010882,-0.087217,-0.142293,-0.141247,-0.106413,-0.065209,-0.110830,-0.140699,-0.183920,-0.086038,0.032311,0.000431,0.109388,0.115713,0.016738,-0.006991,-0.150089,-0.313465,-0.149812,-0.228216,-0.123581,-0.027113,-0.001350,-0.000003,-0.000200,0.020344,-0.022847,0.120991,0.098858,-0.073996,-0.147048,-0.069337,0.029475,0.129493,0.178075,0.224982,0.331747,0.389881,0.423141,0.397419,0.361881,0.199490,0.116432,-0.030879,-0.159526,-0.255393,-0.180597,-0.250849,-0.149773,-0.040112,-0.001433,-0.000000,0.005560,0.027438,-0.013687,0.139297,0.117282,-0.085459,-0.150547,-0.043752,0.192172,0.433729,0.610281,0.749741,0.705074,0.625384,0.587551,0.491981,0.321240,0.169896,0.013287,-0.006941,-0.043419,-0.085433,-0.138957,-0.208355,-0.150792,-0.039964,-0.000891,-0.000000,0.008382,0.052515,0.021080,0.110803,0.114018,-0.144261,-0.233159,0.005156,0.300659,0.496351,0.576013,0.513137,0.427593,0.359548,0.183135,0.037618,-0.019645,-0.074442,-0.038253,-0.017799,0.029599,0.036329,0.009851,-0.144329,-0.135154,-0.026404,-0.000459,0.000000,-0.001313,0.030568,0.017048,0.075744,-0.012059,-0.199285,-0.225914,-0.097772,0.105763,0.180250,0.162569,0.093636,0.057134,-0.005941,-0.115659,-0.229238,-0.269142,-0.204462,-0.004975,0.089353,0.076022,0.099657,0.089149,-0.137886,-0.103236,-0.015212,-0.000210,0.000000,-0.001286,0.003106,-0.019793,0.029440,-0.078746,-0.212122,-0.163334,-0.014493,0.005251,0.003431,-0.045341,-0.010175,-0.068916,-0.263297,-0.387935,-0.422240,-0.350125,-0.176915,-0.018863,0.139448,0.138140,0.206537,0.156328,-0.051885,-0.055462,-0.006533,-0.000615,0.000000,-0.000358,-0.003873,-0.051926,0.004351,-0.008296,-0.083809,-0.138833,-0.056362,-0.082765,-0.139200,-0.102338,-0.110817,-0.214763,-0.317435,-0.324943,-0.327138,-0.267843,-0.128748,-0.007972,0.108255,0.127989,0.166160,0.054696,-0.010738,-0.021176,-0.004931,-0.001373,0.000000,-0.000056,-0.000070,-0.052420,0.064955,0.067385,-0.013669,-0.008222,-0.051074,-0.152482,-0.186052,-0.167660,-0.159979,-0.180014,-0.227294,-0.244616,-0.227846,-0.182811,-0.101029,-0.002188,0.055938,0.052464,0.067903,0.011301,-0.004033,-0.015415,-0.002499,-0.000285,0.000000,-0.000134,-0.005241,-0.048264,0.092286,0.149175,0.098182,0.042576,-0.073704,-0.200255,-0.240769,-0.162093,-0.112886,-0.114145,-0.142392,-0.161950,-0.159171,-0.125029,-0.058934,-0.018363,-0.001117,0.021789,0.017849,-0.022776,-0.010450,-0.006859,-0.001302,-0.000138,0.000000,-0.000116,-0.003958,-0.035242,0.095223,0.198088,0.107866,0.010494,-0.124476,-0.228226,-0.219607,-0.130698,-0.072037,-0.076263,-0.093308,-0.106737,-0.103428,-0.088756,-0.054862,-0.025273,-0.040969,-0.019181,-0.034241,-0.039634,-0.006326,-0.002546,-0.000812,-0.000007,0.000000,-0.000007,-0.001988,-0.024611,0.059631,0.165227,0.079160,-0.016770,-0.162906,-0.250475,-0.195601,-0.094335,-0.056150,-0.061689,-0.068997,-0.076891,-0.078361,-0.064587,-0.066123,-0.043403,-0.047881,-0.067559,-0.056483,-0.036109,-0.013151,-0.001825,-0.000118,-0.000010,0.000000,-0.000000,-0.001353,-0.014845,0.023816,0.078100,0.029791,-0.064839,-0.197559,-0.227963,-0.163641,-0.070250,-0.035960,-0.050682,-0.048556,-0.050619,-0.058899,-0.059940,-0.061100,-0.034977,-0.036359,-0.046348,-0.030154,-0.025872,-0.007117,-0.000448,-0.000002,-0.000002,0.000000,0.000000,-0.000485,-0.009734,-0.026213,0.013892,-0.021136,-0.103203,-0.162251,-0.149295,-0.110594,-0.047843,-0.025133,-0.035812,-0.025594,-0.031188,-0.035552,-0.039388,-0.029911,-0.011807,-0.022574,-0.009429,-0.007367,-0.006122,-0.001512,-0.000015,-0.000000,0.000000,0.000000,0.000000,-0.000022,-0.002364,-0.017497,-0.028486,-0.030678,-0.054157,-0.069302,-0.057882,-0.037852,-0.018516,-0.010435,-0.016728,-0.015089,-0.015942,-0.024316,-0.031338,-0.007237,0.003983,-0.001689,-0.002736,-0.001250,-0.000058,0.001149,-0.000005,-0.000001,0.000000,0.000000,0.000000,0.000000,-0.003085,-0.002237,-0.005947,-0.004294,-0.003922,-0.007661,-0.006977,-0.006687,-0.004105,-0.004717,-0.006808,-0.002341,-0.004579,-0.008489,-0.006579,-0.000531,-0.000304,0.001097,-0.000495,0.000391,0.001593,0.000222,-0.000006,0.000000,0.000000,0.000000,0.000000,0.000000,0.000000,-0.001169,-0.001546,-0.000077,-0.001953,-0.001585,-0.000494,0.000104,0.000819,0.000742,-0.000250,-0.000014,-0.000514,-0.000251,-0.000236,-0.000016,0.000008,0.000037,-0.000000,-0.000000,0.000000,0.000000,0.000000,0.000000,0.000000};
 float weights2[28][28] = { 0.000000,0.000000,0.000000,0.000000,0.000000,0.000000,0.000000,0.000000,-0.000032,-0.000008,-0.000019,-0.000007,-0.000002,-0.000001,-0.000011,-0.000004,-0.000000,0.000000,-0.000004,-0.000006,0.000000,-0.000008,-0.000008,0.000000,0.000000,0.000000,0.000000,0.000000,0.000000,0.000000,0.000000,0.000000,-0.000006,0.000000,-0.000004,-0.000173,0.001334,-0.000677,-0.000648,-0.000662,-0.000082,-0.000024,-0.002653,-0.005895,-0.002829,-0.001224,-0.000080,-0.000377,-0.000857,-0.000005,-0.000003,0.000000,0.000000,0.000000,0.000000,0.000000,0.000000,0.000000,-0.000000,-0.000010,-0.000163,0.000054,-0.001729,0.003440,0.003236,0.000479,-0.000131,-0.001644,-0.000542,-0.000143,-0.001923,-0.003863,-0.004855,0.000562,-0.010959,-0.007052,0.002243,0.008491,0.005761,-0.000599,-0.000800,-0.000019,0.000000,0.000000,0.000000,0.000000,-0.000007,-0.000062,-0.001174,0.002044,0.005943,0.009667,0.009534,0.014467,0.021379,-0.005060,-0.028023,-0.032420,-0.032292,0.002554,0.044838,0.078580,0.073024,0.043279,0.054112,0.053066,0.030058,-0.008881,-0.017719,-0.004514,0.000000,0.000000,0.000000,-0.000003,-0.000108,-0.001041,-0.006745,0.004735,0.020720,0.051297,0.057168,0.056801,-0.007355,-0.060721,-0.094537,-0.139374,-0.109694,-0.003324,0.099921,0.194503,0.233643,0.207177,0.181934,0.120144,0.080261,-0.007112,-0.038447,-0.017385,-0.000906,-0.000001,0.000000,-0.000011,-0.000032,0.000877,0.011420,0.018635,0.044990,0.083896,0.099178,0.128164,0.042316,-0.094535,-0.255195,-0.352086,-0.283222,-0.015242,0.142491,0.260265,0.321516,0.225506,0.197451,0.143097,0.088130,-0.019927,-0.082759,-0.032114,-0.001587,-0.000002,0.000000,-0.000148,-0.000383,0.005959,0.044022,0.064448,0.105007,0.187795,0.134963,0.073936,0.021127,-0.201842,-0.460770,-0.514018,-0.277275,0.034306,0.191118,0.190646,0.200307,0.184733,0.174647,0.141571,0.134043,-0.022019,-0.136161,-0.043756,-0.003450,-0.000010,0.000000,-0.000293,0.001729,0.024953,0.065538,0.114413,0.145752,0.127415,0.107631,0.013802,-0.125687,-0.313633,-0.546655,-0.480128,-0.186541,-0.000112,0.075346,0.112920,0.226270,0.258155,0.276292,0.150939,0.138237,-0.022521,-0.159625,-0.078219,-0.007065,-0.000031,0.000000,-0.000060,0.006187,0.059951,0.110593,0.181108,0.165319,0.134659,0.106275,-0.026354,-0.144716,-0.357743,-0.475368,-0.363392,-0.103547,0.020451,0.015676,0.119519,0.168630,0.208854,0.238204,0.132936,0.163880,0.003619,-0.157971,-0.124735,-0.008363,-0.000047,0.000000,-0.001023,0.014159,0.127983,0.190188,0.237408,0.204364,0.080507,0.091501,0.047785,-0.135385,-0.375501,-0.461737,-0.283585,-0.036887,0.035805,0.097019,0.148982,0.160710,0.204210,0.189651,0.194457,0.161368,0.028294,-0.150338,-0.138103,-0.009583,-0.000214,0.000000,-0.001475,0.006470,0.138351,0.224686,0.268153,0.153925,0.005474,0.157350,0.140660,-0.114698,-0.465197,-0.479056,-0.205227,0.048825,0.039706,0.112099,0.213457,0.238235,0.246140,0.142738,0.136082,0.118842,-0.014695,-0.161817,-0.126708,-0.011310,-0.001007,0.000000,-0.003864,0.005449,0.159294,0.270865,0.277121,0.061351,0.022509,0.116831,0.098723,-0.119458,-0.465384,-0.495186,-0.142574,0.089201,0.012986,0.161648,0.260752,0.205066,0.256277,0.176066,0.080437,0.115755,0.016916,-0.113445,-0.119319,-0.017671,-0.000702,-0.000088,-0.007037,0.001103,0.180746,0.276420,0.244828,0.047331,0.005595,0.043768,0.058802,-0.178403,-0.531239,-0.506368,-0.151893,0.081521,0.093309,0.264644,0.305577,0.288862,0.247149,0.119020,0.029497,0.045460,0.001127,-0.038612,-0.092204,-0.014776,-0.000741,-0.000126,-0.004202,0.008140,0.207498,0.199795,0.226398,0.086822,0.063570,0.064784,0.064853,-0.225150,-0.571283,-0.468070,-0.065893,0.187229,0.191792,0.268034,0.264008,0.279564,0.223182,0.044803,0.040735,-0.027275,-0.077042,-0.035060,-0.077669,-0.018744,-0.000774,0.000074,-0.003119,0.021957,0.150120,0.185713,0.221890,0.090776,0.059674,0.121122,0.125859,-0.096554,-0.400641,-0.387787,-0.078689,0.082667,0.097307,0.117623,0.125633,0.146792,0.113663,0.017430,-0.014133,-0.086119,-0.112170,0.011464,-0.054521,-0.016342,-0.000779,0.000003,-0.001362,0.029395,0.106344,0.120229,0.233754,0.088138,0.005731,0.103014,0.159310,-0.056496,-0.292127,-0.336466,-0.222247,-0.086168,0.034905,0.057063,0.122929,0.047546,0.083835,0.019200,-0.051109,-0.105551,-0.123819,-0.023110,-0.033713,-0.016026,-0.000538,0.000000,0.011057,0.024001,0.106671,0.122292,0.246987,0.071927,-0.019379,0.025423,0.134220,0.026916,-0.119454,-0.252796,-0.221940,-0.083511,0.041327,0.151334,0.096955,0.106012,0.088280,0.045260,0.013346,-0.039177,-0.078465,-0.020330,-0.036317,-0.017613,-0.000487,0.000000,0.004077,0.009207,0.061757,0.096917,0.205838,0.032787,-0.138337,-0.035969,0.040809,0.050352,-0.139640,-0.213657,-0.145719,-0.115389,-0.034770,0.094427,0.043991,0.125390,0.099111,0.012373,0.077737,0.012138,-0.042451,0.003515,-0.040782,-0.017362,-0.000570,0.000000,-0.003523,-0.010354,-0.035631,0.020611,0.103105,-0.000505,-0.076806,-0.063192,0.033267,0.031061,-0.057571,-0.096825,-0.093403,-0.046964,-0.113048,-0.018105,0.062493,0.115223,0.068999,0.110042,0.176944,0.144111,0.085335,0.009040,-0.063959,-0.014248,-0.000463,0.000000,-0.003216,-0.031499,-0.068235,-0.058928,-0.022812,-0.055865,-0.040555,0.026691,0.015512,0.020348,0.058615,0.058479,-0.065765,-0.090051,-0.078033,-0.033959,0.039696,0.079551,0.025719,0.159078,0.236177,0.192299,0.160689,-0.038704,-0.073340,-0.008402,-0.000302,0.000000,-0.002404,-0.019751,-0.085007,-0.092367,-0.054334,-0.085864,-0.067805,-0.011544,-0.014931,-0.000872,-0.023950,-0.043272,-0.078066,-0.049235,-0.106755,-0.025945,0.064636,0.048036,0.060734,0.156179,0.125375,0.188986,0.139619,-0.024042,-0.046349,-0.006353,-0.000706,0.000000,-0.001463,-0.018629,-0.070560,-0.135636,-0.055781,-0.073536,-0.038200,-0.033973,-0.053390,-0.048602,-0.046656,-0.050971,-0.069031,-0.104244,-0.084244,0.102273,0.129997,0.139792,0.153810,0.202621,0.170590,0.175946,0.136672,0.006865,-0.037333,-0.005973,-0.000426,0.000000,-0.000128,-0.014105,-0.059574,-0.135857,-0.105483,-0.107702,-0.035174,-0.066181,-0.050252,-0.052247,-0.071596,-0.118560,-0.124904,-0.114197,-0.105569,0.096504,0.183415,0.206866,0.235335,0.241044,0.234177,0.189745,0.103077,0.007184,-0.025257,-0.001575,-0.001459,0.000000,-0.000045,-0.004661,-0.041793,-0.095596,-0.125806,-0.171855,-0.183016,-0.116771,-0.109055,-0.089728,-0.094128,-0.166197,-0.118790,-0.033538,-0.000850,0.136801,0.202514,0.351292,0.308126,0.277812,0.252638,0.149727,0.065284,0.020151,-0.014829,-0.000019,-0.000021,0.000000,0.000000,0.006038,-0.010619,-0.041971,-0.076294,-0.092504,-0.122558,-0.142800,-0.138791,-0.095263,-0.042763,-0.002076,0.059868,0.095366,0.194837,0.266641,0.343115,0.423463,0.295983,0.239800,0.159298,0.082445,0.046162,0.045770,-0.002937,-0.000001,0.000000,0.000000,0.000000,0.005047,0.002958,-0.003942,-0.015346,-0.022237,-0.032551,-0.050073,-0.046253,-0.031956,0.011870,0.057166,0.122270,0.145741,0.208123,0.298971,0.321306,0.243309,0.169667,0.088359,0.052251,0.024980,0.017628,0.023602,0.002858,-0.000005,0.000000,0.000000,0.000000,0.000000,-0.000232,-0.000787,-0.003195,-0.003973,-0.004866,-0.005730,-0.004959,0.001530,0.004397,0.031139,0.071800,0.078836,0.091917,0.120578,0.073182,0.032314,0.047252,0.016976,0.007004,-0.003339,-0.002412,0.003220,0.003420,0.000000,0.000000,0.000000,0.000000,0.000000,0.000000,-0.000553,-0.000828,-0.000091,-0.000249,-0.000581,-0.000367,-0.000197,-0.000057,0.003099,0.019787,0.002248,0.010728,0.014889,0.005754,0.007923,0.003706,-0.000019,-0.000001,-0.000001,0.000000,0.000000,0.000000,0.000000,0.000000};
 float weights3[28][28] = { 0.000000,0.000000,0.000000,0.000000,0.000000,0.000000,0.000000,0.000000,-0.000000,-0.000052,-0.000089,-0.000045,-0.000018,-0.000003,-0.000575,-0.000189,-0.000003,0.000000,-0.000150,-0.000002,0.000000,-0.000002,-0.000002,0.000000,0.000000,0.000000,0.000000,0.000000,0.000000,0.000000,0.000000,0.000000,0.000009,0.000000,0.000064,0.002598,0.000015,-0.000492,-0.001412,-0.001924,-0.001343,-0.000648,0.002699,0.006666,0.003472,0.001842,0.000248,-0.000094,0.000274,0.000552,0.000007,0.000000,0.000000,0.000000,0.000000,0.000000,0.000000,0.000000,-0.000000,-0.000003,0.000075,0.001253,0.003685,0.002021,-0.002698,0.005044,0.003663,0.004055,-0.004488,-0.003028,0.000746,0.007669,0.021268,0.026989,0.038295,0.036884,0.028317,0.025198,0.022065,0.010613,0.002715,0.000389,0.000000,0.000000,0.000000,0.000000,-0.000000,-0.000010,0.003664,0.018279,0.038362,0.042917,0.041744,0.043269,0.061597,0.051572,0.004060,-0.004537,0.005949,0.017927,0.061165,0.116845,0.182486,0.212078,0.187424,0.123173,0.091145,0.064840,0.026892,-0.002560,0.000000,0.000000,0.000000,-0.000000,-0.000001,-0.000658,0.015020,0.050326,0.097106,0.156909,0.171724,0.146811,0.061707,0.017751,-0.033080,-0.054892,-0.027246,0.020738,0.091487,0.153180,0.209293,0.237193,0.254915,0.192918,0.130176,0.127178,0.071953,0.006399,-0.000138,-0.000000,0.000000,-0.000000,-0.000012,0.013765,0.058459,0.127864,0.170179,0.215950,0.181042,0.105097,-0.018530,-0.122841,-0.158773,-0.143737,-0.123952,-0.045848,0.029990,0.063675,0.177237,0.236533,0.213799,0.164164,0.116901,0.165058,0.123975,0.031536,0.002990,-0.000001,0.000000,-0.000003,-0.000191,0.012957,0.082162,0.178689,0.209022,0.174462,0.134646,0.079477,-0.072059,-0.228023,-0.262066,-0.227710,-0.222731,-0.131691,-0.092254,-0.044624,0.069777,0.125960,0.223297,0.181370,0.120766,0.203356,0.225075,0.076168,0.005721,-0.000008,0.000000,-0.000020,-0.001027,0.021753,0.128016,0.211154,0.153655,0.086289,0.044259,0.001579,-0.154587,-0.331743,-0.311928,-0.275862,-0.255840,-0.212422,-0.166163,-0.088968,-0.060291,0.045212,0.171613,0.149408,0.055175,0.142695,0.255690,0.124895,0.010105,-0.000020,0.000000,-0.000258,-0.003142,0.022755,0.177463,0.203546,0.141645,0.051168,-0.012831,-0.080610,-0.276099,-0.372030,-0.288064,-0.204221,-0.206301,-0.245654,-0.254418,-0.208709,-0.132470,0.006055,0.150059,0.104928,-0.032571,0.022732,0.221838,0.200639,0.006133,-0.000041,0.000000,-0.000582,-0.005604,0.011768,0.199332,0.181331,0.149146,0.061904,0.017355,-0.105927,-0.356803,-0.342487,-0.122954,-0.117088,-0.158826,-0.242397,-0.232085,-0.384804,-0.277771,-0.056150,0.144718,0.004513,0.003498,0.065360,0.227933,0.244873,0.002783,-0.000426,0.000000,-0.000405,-0.003202,0.027693,0.228833,0.152864,0.130794,0.042051,0.039274,-0.198908,-0.391677,-0.270108,0.013214,-0.132561,-0.201684,-0.182050,-0.238073,-0.427669,-0.347171,-0.150331,-0.013385,-0.025528,0.038246,0.070017,0.278286,0.280329,0.002529,-0.001444,0.000000,-0.000121,0.003744,0.094194,0.271700,0.128809,0.109703,0.069188,0.022607,-0.292732,-0.426819,-0.207128,-0.045179,-0.111317,-0.149782,-0.049303,-0.089332,-0.339461,-0.350777,-0.227623,-0.125068,-0.085192,0.018617,0.088576,0.248356,0.291996,-0.000721,-0.001498,-0.000015,-0.000346,0.005052,0.143068,0.275620,0.091782,0.108668,0.128233,0.030112,-0.238244,-0.325884,-0.083974,0.045503,0.073647,0.069212,0.078390,0.024837,-0.225762,-0.358578,-0.270187,-0.208018,-0.105642,-0.065258,-0.015550,0.203194,0.301059,-0.014651,-0.002037,-0.000034,-0.000323,-0.001039,0.136561,0.293991,0.064747,0.179551,0.137404,0.078732,-0.046160,0.000914,0.122302,0.150302,0.234726,0.089804,0.103835,0.074270,-0.207647,-0.314548,-0.195402,-0.116957,-0.065192,-0.058468,0.037595,0.224064,0.241108,-0.017973,-0.002737,-0.000002,-0.001854,-0.001576,0.178816,0.248518,0.063366,0.166508,0.159609,0.174699,0.205696,0.234801,0.201083,0.299575,0.195725,0.072890,0.071816,-0.050935,-0.247349,-0.230703,-0.091465,-0.002969,-0.022605,-0.042903,-0.024731,0.163467,0.136283,-0.028105,-0.004242,-0.000000,-0.002499,-0.009340,0.167293,0.217847,0.129085,0.161283,0.157806,0.190732,0.275776,0.245431,0.201536,0.184410,0.018785,0.026798,0.019802,-0.157834,-0.184299,0.024453,0.037721,0.057277,0.045924,0.006800,-0.018336,0.083951,0.050409,-0.023487,-0.003103,0.000000,-0.001239,-0.007957,0.140561,0.193374,0.144269,0.146059,0.054841,0.132646,0.208013,0.196337,0.107374,0.116741,0.092492,0.020748,-0.032388,-0.148627,-0.000701,0.211622,0.183482,0.143618,0.108608,0.033997,-0.058131,0.082797,0.034035,-0.008157,-0.003385,0.000000,-0.000652,-0.006103,0.111912,0.108485,0.031141,0.070216,0.070663,0.130144,0.160847,0.170222,0.177037,0.128175,0.122358,0.080245,0.007822,-0.008038,0.134744,0.210926,0.262484,0.179209,0.070449,0.041705,0.034789,0.036433,0.002855,-0.010528,-0.003300,0.000000,-0.000412,-0.009318,0.092363,0.109567,0.017740,0.120748,0.050738,0.144416,0.136366,0.157897,0.159356,0.103866,0.111144,0.077678,0.037374,0.141296,0.108219,0.194927,0.238655,0.185160,0.147592,0.087456,0.097674,-0.076241,-0.017191,-0.008286,-0.002676,0.000000,-0.000035,-0.007245,0.055053,0.024442,-0.004799,-0.020343,0.071367,0.146096,0.144111,0.178824,0.167843,-0.002996,-0.065598,-0.031722,0.117193,0.192151,0.175496,0.156768,0.149247,0.141935,0.190991,0.118133,-0.004954,-0.077918,0.003978,-0.007763,-0.001805,0.000000,-0.000050,-0.003668,0.036865,-0.042875,-0.069569,-0.007731,0.058768,0.156499,0.236046,0.248606,0.138616,-0.114312,-0.212844,-0.101876,0.141103,0.171354,0.107951,0.117594,0.137000,0.202747,0.114449,0.039127,-0.043402,-0.046745,-0.015641,-0.009050,-0.000856,0.000000,-0.000030,-0.003481,-0.021015,-0.087173,-0.136573,-0.060676,-0.011980,0.112770,0.168215,0.091970,-0.070739,-0.233007,-0.205538,-0.040092,0.110962,0.161420,0.198519,0.263064,0.247972,0.143479,0.004572,-0.052549,-0.051617,-0.025058,-0.023730,-0.005242,-0.000238,0.000000,-0.000002,-0.002754,-0.027798,-0.078984,-0.156284,-0.155536,-0.112986,0.021413,0.054657,-0.021935,-0.102242,-0.172437,-0.189927,-0.113289,0.081547,0.181410,0.244469,0.262598,0.150812,0.017683,-0.064002,-0.048631,-0.049185,-0.017693,-0.009693,-0.000237,-0.000118,0.000000,-0.000000,-0.001248,-0.016070,-0.083360,-0.148808,-0.167109,-0.185096,-0.205980,-0.135517,-0.094818,-0.093279,-0.101910,-0.104147,-0.083440,0.027931,0.106479,0.131553,0.068671,0.016013,-0.036725,-0.081783,-0.051707,-0.027856,-0.008932,-0.001766,-0.000047,-0.000017,0.000000,0.000000,-0.000394,-0.005321,-0.021632,-0.055153,-0.079193,-0.112999,-0.146941,-0.120759,-0.080616,-0.057336,-0.039895,-0.044976,-0.039214,-0.013995,0.020081,-0.039406,-0.084711,-0.072534,-0.060771,-0.052983,-0.032685,-0.012572,-0.007061,-0.000140,-0.000001,0.000000,0.000000,0.000000,-0.000020,-0.000348,-0.002211,-0.010556,-0.022359,-0.029916,-0.039803,-0.026180,-0.015528,-0.004412,0.000287,-0.003907,-0.010172,-0.016849,-0.026388,-0.047061,-0.038054,-0.025739,-0.015779,-0.013289,-0.009985,-0.005488,-0.001799,-0.000116,-0.000000,0.000000,0.000000,0.000000,0.000000,-0.000007,-0.000087,-0.001301,-0.003761,-0.003353,-0.003440,-0.003920,-0.002338,-0.000844,-0.000349,-0.000646,-0.003333,-0.004434,-0.005134,-0.005260,-0.004534,-0.004153,-0.001386,-0.002134,-0.000144,0.000959,-0.000012,-0.000004,0.000000,0.000000,0.000000,0.000000,0.000000,0.000000,-0.000017,-0.000080,-0.000108,-0.000154,-0.000041,-0.000109,-0.000043,-0.000019,-0.000023,-0.000733,-0.000537,-0.000257,-0.000326,-0.000233,-0.000131,-0.000065,-0.000005,-0.000000,-0.000000,0.000000,0.000000,0.000000,0.000000,0.000000};
 float weights4[28][28] = { 0.000000,0.000000,0.000000,0.000000,0.000000,0.000000,0.000000,0.000000,-0.000044,-0.000242,-0.000298,-0.000044,-0.000002,-0.000000,-0.000025,-0.000010,-0.000009,0.000000,-0.000639,-0.000000,0.000000,-0.000000,-0.000000,0.000000,0.000000,0.000000,0.000000,0.000000,0.000000,0.000000,0.000000,0.000000,-0.000000,0.000000,-0.000000,-0.000125,-0.001769,-0.001962,-0.002316,-0.006607,-0.010291,-0.006973,-0.003749,-0.000008,-0.000004,-0.000006,-0.000001,-0.001083,-0.000035,-0.000004,-0.000000,0.000000,0.000000,0.000000,0.000000,0.000000,0.000000,0.000000,-0.000000,-0.000001,-0.000003,-0.000035,-0.000552,-0.000873,-0.000765,-0.003651,-0.011613,-0.027604,-0.030732,-0.020524,-0.009482,0.002307,-0.002587,-0.002315,-0.004110,-0.005188,-0.002933,-0.000564,-0.000444,-0.000231,-0.000015,-0.000018,0.000000,0.000000,0.000000,0.000000,-0.000190,-0.000696,-0.000226,0.000699,-0.005536,-0.001405,-0.004928,-0.026095,-0.035672,-0.033976,-0.045878,-0.037815,-0.004388,0.016677,-0.021740,-0.060964,-0.053718,-0.025463,-0.027355,-0.022081,-0.018448,-0.004900,-0.000263,-0.000047,0.000000,0.000000,0.000000,-0.000009,-0.000286,-0.000600,0.002298,0.004062,0.006184,0.017729,0.005954,-0.040409,-0.039737,-0.063073,-0.078888,-0.024394,0.081831,0.075588,-0.027034,-0.062900,-0.078075,-0.077908,-0.079049,-0.053542,-0.032949,-0.013817,-0.006225,-0.002658,-0.000686,-0.000000,0.000000,-0.000083,-0.000242,-0.001397,0.002566,0.017979,0.042583,0.060394,0.037003,-0.025190,-0.077178,-0.074901,-0.044750,0.073545,0.184159,0.157720,0.042375,-0.050886,-0.098185,-0.099086,-0.134588,-0.088051,-0.059783,-0.036881,-0.015569,-0.019149,-0.001748,-0.000002,0.000000,-0.005757,-0.006079,-0.012441,-0.011007,0.020160,0.051566,0.031060,-0.015763,-0.084741,-0.108890,-0.038436,0.064978,0.220086,0.279560,0.235691,0.134801,0.029426,-0.093665,-0.161313,-0.205617,-0.187383,-0.107564,-0.053050,-0.035092,-0.045638,-0.015581,-0.000741,0.000000,-0.012213,-0.023620,-0.027874,-0.026633,-0.002049,0.044347,0.023716,-0.034952,-0.070320,-0.042525,0.019300,0.168948,0.285194,0.351048,0.330362,0.271778,0.157211,-0.021222,-0.234685,-0.321517,-0.264371,-0.151459,-0.072490,-0.048292,-0.074326,-0.033275,-0.004256,0.000000,-0.013307,-0.029584,-0.055524,-0.067712,-0.017300,0.000116,-0.033236,-0.088008,-0.044211,0.000065,0.112589,0.253757,0.308616,0.315292,0.307123,0.315375,0.194027,-0.000639,-0.286524,-0.398900,-0.248733,-0.162110,-0.065855,-0.042729,-0.121355,-0.062382,-0.005156,0.000000,-0.006639,-0.034999,-0.085889,-0.110422,-0.026722,-0.011536,-0.047669,-0.036336,-0.007820,0.103032,0.213869,0.227843,0.289752,0.269256,0.258514,0.214079,0.132575,-0.034544,-0.322834,-0.379943,-0.240731,-0.163991,-0.054180,-0.018967,-0.128444,-0.104418,-0.005201,0.000000,-0.010930,-0.059047,-0.114051,-0.171494,-0.098116,-0.084082,-0.133792,-0.151677,-0.099909,0.056420,0.235319,0.362255,0.414450,0.317438,0.201203,0.041752,0.020409,-0.183625,-0.346095,-0.351961,-0.222279,-0.098932,-0.028306,-0.030854,-0.139710,-0.123777,-0.012324,0.000000,-0.018367,-0.077826,-0.141781,-0.197885,-0.150340,-0.192965,-0.238292,-0.187183,-0.114872,0.040413,0.230064,0.449981,0.526312,0.350933,0.204065,0.006092,-0.015827,-0.127320,-0.268989,-0.248791,-0.119838,-0.068796,-0.014514,-0.019353,-0.203379,-0.149489,-0.008568,-0.001391,-0.037051,-0.107338,-0.191738,-0.214363,-0.174873,-0.223165,-0.335227,-0.237595,-0.103496,0.114321,0.225374,0.379275,0.313895,0.184101,0.112774,0.038085,0.077885,0.050525,-0.250438,-0.214710,-0.112810,-0.085889,-0.079501,-0.107177,-0.245289,-0.166053,-0.008216,-0.003082,-0.022741,-0.099280,-0.220263,-0.201672,-0.160107,-0.252765,-0.313845,-0.229164,-0.182327,-0.199105,-0.310677,-0.096831,-0.051477,-0.051016,-0.042819,0.074827,0.233195,0.171052,-0.106683,-0.237115,-0.172832,-0.098485,-0.067727,-0.112096,-0.212764,-0.174928,-0.010777,-0.000039,-0.008643,-0.080248,-0.194950,-0.223790,-0.089040,-0.260464,-0.393856,-0.421595,-0.488030,-0.537688,-0.470792,-0.248821,-0.076989,-0.037559,0.052003,0.258532,0.418963,0.241723,0.030667,-0.116877,-0.110886,-0.092971,-0.037919,-0.077349,-0.198637,-0.205027,-0.021506,-0.000002,-0.014325,-0.080369,-0.179255,-0.230986,-0.079910,-0.282101,-0.427728,-0.452435,-0.409498,-0.242622,-0.039655,0.116366,0.174487,0.148146,0.249516,0.413670,0.382948,0.210502,0.008434,-0.066331,-0.008103,-0.033452,-0.001991,-0.057798,-0.226081,-0.184488,-0.011812,0.000000,-0.017076,-0.072472,-0.139764,-0.157472,-0.002137,-0.221109,-0.377328,-0.335353,-0.132292,0.016548,0.271047,0.315393,0.285479,0.364749,0.432938,0.384414,0.274253,0.127678,-0.035162,-0.027143,-0.032929,-0.037333,0.022303,-0.036766,-0.264518,-0.172263,-0.013857,0.000000,-0.010323,-0.041503,-0.101388,-0.100397,0.021681,-0.141477,-0.231944,-0.167714,-0.018229,0.082471,0.143568,0.154881,0.246508,0.387282,0.339590,0.230356,0.115216,-0.099566,-0.133318,-0.065639,-0.043341,-0.000459,0.041982,-0.051105,-0.254268,-0.151800,-0.012642,0.000000,-0.006289,-0.031977,-0.071247,-0.076665,0.058831,-0.129340,-0.207053,-0.089631,-0.001805,0.000509,-0.017501,0.041943,0.155305,0.229434,0.190839,0.167612,0.076828,-0.095273,-0.136492,-0.121932,-0.064926,0.044626,0.148476,0.024203,-0.188575,-0.138906,-0.014434,0.000000,-0.006575,-0.019732,-0.027164,0.015053,0.099097,-0.004314,-0.121378,-0.069322,-0.016723,0.013603,-0.043702,0.020075,0.113623,0.268861,0.166901,0.068928,-0.032198,-0.118624,-0.156996,-0.131938,-0.000546,0.144105,0.172171,0.068006,-0.146989,-0.098187,-0.010223,0.000000,-0.005373,-0.011507,-0.008407,0.060070,0.078221,-0.011349,-0.088066,-0.059197,-0.031911,-0.107745,-0.144294,-0.009379,0.164481,0.178158,0.053467,0.080848,-0.020375,-0.072367,-0.128200,-0.096608,-0.008481,0.092773,0.149434,0.052663,-0.082853,-0.043442,-0.002364,0.000000,-0.005799,-0.008536,-0.003606,0.041719,0.071155,0.073823,0.000417,-0.030725,-0.036504,-0.116826,-0.129010,0.012738,0.101434,0.058364,-0.014483,0.022603,-0.020704,-0.082458,-0.104316,-0.058558,0.000236,0.094351,0.096869,0.025998,-0.046969,-0.019454,-0.000698,0.000000,-0.006232,-0.009207,-0.002931,0.057980,0.147534,0.215922,0.163059,0.027707,-0.050891,-0.122125,-0.145216,-0.041475,0.037233,0.036459,-0.006096,-0.071094,-0.132811,-0.172822,-0.174679,-0.106591,-0.046521,0.000780,0.000130,-0.002685,-0.021258,-0.007711,-0.000990,0.000000,-0.001601,-0.005607,0.000864,0.062080,0.185451,0.258630,0.206841,0.062394,-0.076979,-0.197198,-0.168858,-0.089217,-0.024906,-0.017605,-0.055884,-0.099798,-0.109008,-0.123085,-0.120028,-0.083402,-0.038376,-0.033718,-0.026659,-0.012586,-0.012435,-0.000387,-0.000223,0.000000,0.000000,-0.001415,-0.003653,0.033128,0.076398,0.106812,0.072220,-0.001221,-0.140871,-0.155592,-0.118003,-0.043124,-0.047351,-0.053370,-0.108952,-0.089595,-0.088705,-0.083961,-0.069007,-0.039216,-0.024751,-0.013411,-0.009692,-0.009129,-0.007003,-0.000154,0.000000,0.000000,0.000000,-0.000368,-0.000612,0.001603,0.001512,0.010028,-0.002697,-0.024572,-0.087476,-0.090853,-0.045658,-0.008844,-0.001412,-0.022380,-0.048950,-0.048022,-0.057724,-0.050086,-0.024026,-0.020808,-0.017811,-0.007341,0.000322,0.001284,-0.000227,-0.000001,0.000000,0.000000,0.000000,0.000000,-0.000064,-0.001545,-0.004720,0.003966,0.005676,-0.018039,-0.026819,-0.024393,-0.006703,-0.004581,-0.003718,-0.013575,0.004292,-0.014112,-0.008127,-0.001756,-0.001253,-0.000530,-0.000233,0.000601,0.000604,-0.000039,-0.000042,0.000000,0.000000,0.000000,0.000000,0.000000,0.000000,-0.000346,-0.000116,-0.000393,-0.000424,-0.000761,-0.002256,-0.000614,-0.000343,-0.001683,-0.004858,-0.000526,-0.000812,-0.000880,-0.003301,-0.000045,-0.000000,-0.000003,-0.000000,-0.000000,0.000000,0.000000,0.000000,0.000000,0.000000};
 float weights5[28][28] = { 0.000000,0.000000,0.000000,0.000000,0.000000,0.000000,0.000000,0.000000,-0.000001,-0.000023,-0.000037,-0.000020,-0.000002,-0.000000,0.001973,0.000634,-0.000066,0.000000,-0.000074,-0.000000,0.000000,-0.000000,-0.000000,0.000000,0.000000,0.000000,0.000000,0.000000,0.000000,0.000000,0.000000,0.000000,-0.000002,0.000000,-0.000007,-0.000389,-0.000675,-0.001248,-0.001565,-0.002767,-0.001961,-0.000474,-0.000251,-0.000126,-0.000070,-0.000158,-0.000072,-0.000231,-0.000368,-0.000209,-0.000001,0.000000,0.000000,0.000000,0.000000,0.000000,0.000000,0.000000,-0.000000,-0.000001,-0.000073,-0.001148,-0.000319,-0.006402,-0.007722,-0.004471,-0.004242,-0.005293,-0.004859,-0.001914,-0.000947,-0.001285,-0.002736,-0.004492,-0.005667,-0.006031,-0.002820,-0.004714,-0.003713,-0.000639,-0.000138,-0.000002,0.000000,0.000000,0.000000,0.000000,-0.000007,0.000058,-0.001462,-0.008132,-0.026801,-0.041995,-0.049204,-0.049658,-0.043214,-0.038619,-0.016714,-0.000490,0.000061,-0.005558,0.002705,0.010644,0.002947,-0.009885,-0.006699,-0.002389,-0.004707,-0.000236,0.003289,0.004391,0.000000,0.000000,0.000000,-0.000000,-0.000007,0.002137,-0.009326,-0.033603,-0.068115,-0.133994,-0.170327,-0.135235,-0.063066,-0.023560,0.010139,0.026745,0.009595,-0.014608,-0.010953,0.026509,0.083562,0.079948,0.026550,0.033007,0.038075,0.021812,-0.004945,0.004632,-0.000975,-0.000000,0.000000,-0.000001,-0.000003,-0.003733,-0.035271,-0.077742,-0.095980,-0.146002,-0.170584,-0.145233,-0.054730,0.019773,0.071120,0.092588,-0.000891,-0.104212,-0.091374,0.080484,0.173156,0.187423,0.149104,0.011560,-0.018929,0.031789,-0.012339,-0.010476,-0.002419,-0.000005,0.000000,-0.000003,-0.000178,-0.003402,-0.046681,-0.103776,-0.094692,-0.112555,-0.123440,-0.071062,0.026704,0.160991,0.197727,0.097031,-0.000333,-0.109938,-0.110442,0.158044,0.363936,0.317325,0.198607,0.084487,-0.060161,-0.026886,-0.014589,-0.014468,-0.005475,-0.000012,0.000000,-0.000006,-0.001812,-0.011337,-0.065344,-0.083963,-0.034699,0.008874,-0.039111,0.047229,0.159309,0.171974,0.143067,0.130464,0.020164,-0.132406,-0.258812,-0.123138,0.159716,0.224431,0.122064,0.121961,-0.013134,-0.047075,0.010593,-0.008663,-0.014460,-0.000106,0.000000,-0.000140,-0.002064,-0.014104,-0.111041,-0.062257,0.023001,0.105342,0.120429,0.197017,0.263316,0.191418,0.128128,0.095117,0.094286,-0.005173,-0.287786,-0.305815,-0.063030,0.212707,0.244164,0.176306,0.083429,0.031894,0.013360,0.000903,-0.017288,-0.000384,0.000000,-0.000527,-0.002984,-0.024564,-0.111635,-0.013592,0.071185,0.127981,0.111560,0.165806,0.303541,0.177265,0.030397,0.090044,0.174515,0.129148,-0.221481,-0.321209,-0.180756,0.095676,0.210677,0.175331,0.126581,0.083222,0.117559,0.057159,-0.010594,-0.000684,0.000000,-0.000503,-0.007090,-0.023754,-0.082933,0.016238,0.097952,0.177589,0.125684,0.177286,0.268781,0.177925,0.181844,0.264958,0.303956,0.135467,-0.123058,-0.316891,-0.212086,0.006588,0.110551,0.111578,0.078674,0.148914,0.124020,0.078172,-0.004497,0.000447,0.000000,-0.000251,-0.015040,-0.042922,-0.073087,0.050629,0.076780,0.146023,0.130343,0.257233,0.322270,0.274299,0.349070,0.321111,0.186303,0.123336,-0.082604,-0.280585,-0.227628,0.018769,0.155597,0.115023,0.116303,0.159321,0.165479,0.129197,0.013590,0.002082,-0.000008,-0.001104,-0.019444,-0.048057,-0.104872,0.007084,0.017179,0.031299,0.046040,0.205324,0.357049,0.359223,0.380999,0.336043,0.182320,0.124454,-0.064974,-0.307197,-0.156700,0.079830,0.078378,0.067750,0.174654,0.168512,0.190241,0.153164,0.010862,0.000588,-0.000018,-0.001293,-0.023301,-0.054357,-0.139791,-0.059274,-0.005745,-0.035315,-0.048504,0.038620,0.243030,0.425879,0.325967,0.201223,0.096660,-0.027995,-0.140578,-0.277209,-0.079224,0.073526,0.058756,0.016094,0.207905,0.106066,0.233118,0.159569,-0.008755,-0.002247,-0.000000,-0.001007,-0.026160,-0.022410,-0.067024,-0.079252,0.040484,0.057080,-0.101051,-0.107328,0.069135,0.128836,0.022731,-0.024717,-0.056256,-0.214476,-0.199675,-0.182190,-0.006476,0.064018,-0.022397,0.024739,0.135103,0.103518,0.210424,0.115210,-0.019595,-0.004454,-0.000000,-0.001098,-0.018739,0.027805,0.082519,-0.066065,-0.046730,-0.058509,-0.171486,-0.226569,-0.060545,-0.077561,-0.155217,-0.235160,-0.177821,-0.228969,-0.149197,-0.096665,-0.011591,0.068968,-0.017919,0.037666,0.094079,0.087647,0.194316,0.128226,-0.000764,-0.002723,0.000000,-0.001154,-0.006229,0.022859,0.119007,0.013840,-0.048613,0.031277,-0.111825,-0.236221,-0.129266,-0.163014,-0.331636,-0.355252,-0.251020,-0.184420,-0.145735,-0.018088,0.013197,0.013232,0.054680,0.039834,0.130209,0.125889,0.105118,0.108775,-0.003901,-0.002514,0.000000,-0.000779,0.011685,0.059923,0.134730,0.058101,0.018204,0.068164,-0.066299,-0.179217,-0.228171,-0.216430,-0.317798,-0.248072,-0.219224,-0.152198,-0.081925,0.045273,0.074518,-0.005144,0.081297,0.088411,0.079463,0.055274,0.075177,0.074914,-0.006250,-0.003061,0.000000,-0.000888,0.012212,0.103752,0.131677,0.065699,0.058666,0.053885,-0.026164,-0.087034,-0.228033,-0.240170,-0.259533,-0.169581,-0.146487,-0.025367,-0.031837,0.079997,-0.007920,0.014136,0.120422,0.030119,0.068635,-0.026597,0.047494,0.034804,-0.009921,-0.003376,0.000000,-0.000641,0.002665,0.097391,0.062931,0.033477,0.089710,0.082071,0.024247,-0.016405,-0.179921,-0.348923,-0.315041,-0.096998,-0.126362,-0.089994,0.002704,0.080493,0.067242,0.056761,0.060425,-0.010796,0.098950,0.045215,0.002542,0.025345,0.001321,-0.002432,0.000000,-0.000506,-0.009513,0.078958,-0.010168,0.084998,0.098303,0.070430,0.104493,0.048669,-0.084331,-0.422277,-0.389731,-0.099515,-0.009949,-0.065281,0.001243,0.071760,0.108289,0.096683,0.024284,0.110551,0.126153,0.056178,-0.002988,0.013519,0.011156,-0.001858,0.000000,-0.000146,-0.008017,0.057558,0.077649,0.093324,0.079235,0.077462,0.124813,0.195634,0.008538,-0.374431,-0.497538,-0.245408,-0.063831,-0.010127,-0.007634,0.031042,0.049243,0.059137,0.087851,0.198769,0.091520,0.002430,0.002251,0.032862,0.010382,-0.000620,0.000000,-0.000006,-0.003424,0.023796,0.092423,0.179532,0.201687,0.153840,0.171228,0.276016,0.104550,-0.330867,-0.548307,-0.338203,-0.115503,-0.025021,0.044282,0.022407,0.063346,0.079659,0.199205,0.184504,0.091891,0.017276,0.034066,0.044054,0.004423,-0.000545,0.000000,-0.000003,-0.005703,-0.017946,0.101635,0.230455,0.362663,0.381115,0.469792,0.533553,0.354939,-0.110039,-0.415948,-0.351927,-0.169452,-0.033477,0.059387,0.084011,0.106428,0.130295,0.132021,0.107732,0.062930,0.035939,0.029020,0.032527,0.000085,-0.000122,0.000000,0.000000,-0.003920,-0.015533,0.078230,0.189308,0.396593,0.507032,0.672561,0.771525,0.602821,0.111898,-0.242482,-0.211956,-0.113750,-0.038136,0.008911,0.055810,0.090502,0.084521,0.048435,0.035391,0.029380,0.021269,0.016631,0.018302,-0.000002,0.000000,0.000000,0.000000,-0.000539,0.005686,0.019450,0.093683,0.216905,0.362433,0.453718,0.527183,0.499083,0.210732,0.002959,-0.035718,-0.042680,-0.026231,-0.024022,-0.025685,-0.013170,0.001512,0.015680,0.021386,0.016281,0.007419,-0.003056,-0.000006,-0.000001,0.000000,0.000000,0.000000,0.000000,0.001260,0.002302,0.031579,0.082981,0.083584,0.105283,0.108479,0.119290,0.059451,0.022961,-0.000549,-0.004937,-0.008966,-0.010295,-0.005142,-0.003025,-0.005319,-0.001251,0.000438,0.003753,0.002186,-0.000051,-0.000003,0.000000,0.000000,0.000000,0.000000,0.000000,0.000000,-0.000265,0.002736,0.011108,0.008898,0.006866,0.007328,0.003675,0.001599,-0.000393,-0.003165,-0.000142,-0.001490,-0.002615,-0.000434,-0.000952,-0.000383,0.000068,-0.000001,-0.000003,0.000000,0.000000,0.000000,0.000000,0.000000};
 float weights6[28][28] = { 0.000000,0.000000,0.000000,0.000000,0.000000,0.000000,0.000000,0.000000,-0.000003,-0.000004,-0.000006,-0.000001,-0.000000,-0.000000,-0.000065,-0.000021,-0.000000,0.000000,-0.000008,-0.000000,0.000000,-0.000000,-0.000000,0.000000,0.000000,0.000000,0.000000,0.000000,0.000000,0.000000,0.000000,0.000000,-0.000000,0.000000,-0.000000,-0.000033,-0.000431,-0.000919,-0.001313,-0.001433,-0.000541,-0.000352,-0.000004,-0.000003,-0.000004,-0.000054,-0.000014,-0.000305,-0.000446,-0.000067,-0.000000,0.000000,0.000000,0.000000,0.000000,0.000000,0.000000,0.000000,0.000002,-0.000089,-0.000320,0.000079,-0.000219,-0.000798,-0.001485,-0.003034,-0.006807,-0.002093,-0.001685,-0.000383,-0.000066,-0.000131,-0.000681,-0.001792,-0.001879,-0.002400,-0.002226,-0.000894,-0.000340,-0.000141,-0.000006,-0.000000,0.000000,0.000000,0.000000,0.000000,-0.000004,0.000336,-0.000630,-0.007245,-0.011209,-0.013726,-0.015094,-0.023877,-0.024446,-0.022327,-0.016614,-0.012557,-0.008644,-0.022892,-0.036640,-0.044022,-0.043522,-0.044300,-0.033061,-0.015933,-0.005313,-0.001931,-0.000081,-0.000019,0.000000,0.000000,0.000000,0.000014,0.000351,0.002559,0.003610,-0.000405,-0.006742,-0.009543,-0.014980,-0.028187,-0.039217,-0.026752,-0.031938,-0.039866,-0.066974,-0.105030,-0.126298,-0.158004,-0.150885,-0.125755,-0.108692,-0.075983,-0.033459,-0.008027,-0.000888,-0.000738,-0.000319,-0.000000,0.000000,0.000102,0.000350,0.003176,-0.006372,-0.036722,-0.037998,-0.034590,-0.059315,-0.080063,-0.067282,-0.023576,-0.008628,0.016514,0.012237,-0.017074,-0.041802,-0.105541,-0.183828,-0.187319,-0.180624,-0.146963,-0.082426,-0.025534,-0.006274,-0.002294,-0.000457,-0.000000,0.000000,0.005985,0.009218,0.016217,-0.009516,-0.033614,-0.058973,-0.071493,-0.094421,-0.099547,-0.073524,-0.019916,0.079268,0.146963,0.127355,0.107078,0.094392,0.029119,-0.040363,-0.101359,-0.169555,-0.215280,-0.166711,-0.058544,-0.016203,-0.005171,-0.000601,-0.000003,0.000000,0.012882,0.030906,0.034107,0.008471,-0.015547,-0.001121,-0.016107,-0.072379,-0.055068,0.003322,0.084171,0.130941,0.115157,0.112994,0.153141,0.191487,0.153597,0.120310,0.039156,-0.037450,-0.129919,-0.208958,-0.119986,-0.036747,-0.008694,-0.000874,-0.000016,0.000000,0.017273,0.046287,0.050196,0.038848,0.022433,-0.011723,-0.051934,-0.088952,-0.031113,0.040320,0.057614,0.108987,0.111395,0.121340,0.151023,0.196744,0.208983,0.168432,0.096999,0.011871,-0.024946,-0.193697,-0.179966,-0.070929,-0.018251,-0.002906,-0.000025,0.000000,0.013341,0.059015,0.074590,0.030446,0.004938,-0.065350,-0.104891,-0.111846,-0.090486,-0.031448,0.076223,0.128074,0.126113,0.177749,0.188457,0.260338,0.255428,0.235245,0.201533,0.157475,0.040434,-0.128122,-0.227698,-0.105005,-0.027790,-0.004525,-0.000155,0.000000,0.017132,0.098438,0.110388,0.033716,-0.028204,-0.144201,-0.157590,-0.152655,-0.133198,-0.032256,0.040856,0.071937,0.165397,0.212665,0.277811,0.368837,0.428235,0.343055,0.344314,0.320378,0.162781,-0.069684,-0.277017,-0.141209,-0.033748,-0.005824,-0.000563,0.000000,0.023281,0.131526,0.121614,-0.013225,-0.144722,-0.163537,-0.138950,-0.146040,-0.125287,-0.081468,0.002578,0.178240,0.179158,0.271830,0.307943,0.384470,0.408832,0.388356,0.440860,0.340683,0.274451,-0.020619,-0.262305,-0.178850,-0.038047,-0.008093,-0.000697,0.001662,0.046770,0.165978,0.123476,-0.030843,-0.117568,-0.125713,-0.144061,-0.169172,-0.164978,-0.128499,0.071769,0.178017,0.148231,0.118116,0.124543,0.089356,0.141659,0.327383,0.395656,0.389999,0.377676,0.094334,-0.185213,-0.176864,-0.039804,-0.010473,-0.001042,0.003617,0.030023,0.156563,0.147779,-0.025918,-0.149510,-0.171825,-0.186233,-0.217515,-0.211565,-0.080704,0.048699,0.068299,-0.018495,-0.053440,0.040369,0.059305,0.079963,0.176420,0.212229,0.322182,0.434135,0.087083,-0.139139,-0.185524,-0.049472,-0.012062,-0.000832,-0.000025,0.013902,0.141853,0.153077,-0.027728,-0.090970,-0.167736,-0.182185,-0.221903,-0.179667,-0.187296,-0.178758,-0.186079,-0.130347,-0.051881,0.122124,0.156532,0.083639,0.041973,0.163088,0.357069,0.411646,0.045553,-0.112312,-0.177415,-0.049298,-0.011047,-0.001406,-0.000001,0.014899,0.121182,0.130433,-0.007259,-0.085699,-0.106955,-0.139391,-0.248918,-0.297787,-0.340695,-0.363183,-0.203526,0.010804,0.051669,0.090720,0.076604,-0.009960,0.048931,0.187691,0.275832,0.266034,0.070379,-0.112901,-0.164316,-0.049462,-0.009459,-0.000924,0.000000,0.013031,0.121968,0.125755,0.058798,-0.049461,-0.104309,-0.201799,-0.302493,-0.404373,-0.402500,-0.282981,-0.080370,0.034204,0.063285,-0.024528,-0.084146,-0.081599,0.114055,0.213469,0.198992,0.198548,0.039856,-0.140781,-0.122965,-0.043480,-0.010307,-0.000545,0.000000,0.012789,0.091991,0.151780,0.136522,0.034915,-0.078959,-0.196056,-0.341830,-0.480290,-0.419848,-0.267672,-0.104823,-0.085467,-0.141081,-0.108748,-0.112327,0.010275,0.168119,0.173925,0.135938,0.203195,-0.011572,-0.131466,-0.086185,-0.034212,-0.008578,-0.000863,0.000000,0.014792,0.089548,0.191446,0.169598,0.123188,-0.078712,-0.231005,-0.435471,-0.493053,-0.402712,-0.243826,-0.128155,-0.123554,-0.142441,-0.080310,0.019446,0.133726,0.184925,0.121313,0.167667,0.146497,-0.057716,-0.097546,-0.065603,-0.027796,-0.006506,-0.000925,0.000000,0.011792,0.102467,0.211335,0.209916,0.182941,-0.021711,-0.232096,-0.405393,-0.449147,-0.357604,-0.196797,-0.149094,-0.060545,-0.064452,-0.030249,0.066556,0.114382,0.095931,0.129421,0.119609,0.053971,-0.072234,-0.076648,-0.055606,-0.020630,-0.004144,-0.000811,0.000000,0.009809,0.076628,0.174316,0.239302,0.157797,-0.011739,-0.180051,-0.294469,-0.328471,-0.251569,-0.107232,-0.043672,-0.027728,-0.009206,0.045810,0.035833,0.058913,0.054978,0.095772,0.073980,-0.012706,-0.066753,-0.064873,-0.037507,-0.011461,-0.002360,-0.000400,0.000000,0.008375,0.057953,0.160166,0.244447,0.140559,-0.013237,-0.147762,-0.227978,-0.249982,-0.189057,-0.019695,0.098137,0.136110,0.124436,0.126860,0.037317,0.043633,0.051583,0.056168,-0.010594,-0.063374,-0.052723,-0.051274,-0.027596,-0.006184,-0.001218,-0.000030,0.000000,0.006557,0.039593,0.136050,0.212911,0.120917,-0.014298,-0.161414,-0.227893,-0.263615,-0.159587,0.038858,0.226414,0.304412,0.285445,0.151202,0.043132,0.030285,0.019585,0.004805,-0.074110,-0.050254,-0.059350,-0.028788,-0.014145,-0.002956,-0.000180,-0.000063,0.000000,0.001714,0.023090,0.109475,0.153754,0.108851,-0.024948,-0.130157,-0.186625,-0.175874,-0.087437,0.100942,0.276103,0.351683,0.277462,0.171581,0.062765,0.017708,-0.003658,-0.053562,-0.059366,-0.039854,-0.038419,-0.014928,-0.006126,-0.001407,-0.000022,-0.000015,0.000000,0.000000,0.002379,0.061297,0.055076,0.043838,-0.026138,-0.050617,-0.114843,-0.130604,-0.104196,-0.019605,0.091556,0.157237,0.134707,0.084876,0.030112,-0.033482,-0.057427,-0.059615,-0.041204,-0.021710,-0.014498,-0.008753,-0.001791,-0.000317,-0.000003,0.000000,0.000000,0.000000,-0.003809,-0.000163,0.011758,-0.001136,-0.019270,-0.035108,-0.059449,-0.093694,-0.104190,-0.081005,-0.052178,-0.053036,-0.028191,-0.020481,-0.044036,-0.046406,-0.027923,-0.042033,-0.018517,-0.009519,-0.004087,-0.001906,-0.000167,-0.000019,-0.000000,0.000000,0.000000,0.000000,0.000000,0.003931,0.000675,0.002698,-0.011356,-0.012264,-0.025437,-0.032508,-0.033058,-0.037604,-0.036724,-0.040630,-0.041254,-0.049395,-0.046298,-0.029614,-0.014730,-0.018782,-0.004151,-0.000897,-0.000101,-0.000040,-0.000027,-0.000021,0.000000,0.000000,0.000000,0.000000,0.000000,0.000000,0.002413,0.003457,-0.000572,-0.001946,-0.002376,-0.002303,-0.005650,-0.003294,-0.001970,-0.006669,-0.000723,-0.004010,-0.008374,-0.004028,-0.004383,-0.002446,-0.000001,-0.000000,-0.000000,0.000000,0.000000,0.000000,0.000000,0.000000};
 float weights7[28][28] = { 0.000000,0.000000,0.000000,0.000000,0.000000,0.000000,0.000000,0.000000,-0.001274,0.001014,0.001560,0.000765,0.000845,-0.000001,-0.000023,0.000012,0.000112,0.000000,0.000794,-0.000000,0.000000,-0.000001,-0.000001,0.000000,0.000000,0.000000,0.000000,0.000000,0.000000,0.000000,0.000000,0.000000,-0.000000,0.000000,-0.000003,0.000631,0.005970,0.012275,0.016281,0.024182,0.026199,0.013132,0.006126,-0.000015,-0.000150,-0.000022,-0.000002,0.002891,-0.000023,-0.000041,-0.000002,0.000000,0.000000,0.000000,0.000000,0.000000,0.000000,0.000000,-0.000000,-0.000000,-0.000000,-0.000009,0.003707,0.010717,0.031779,0.041518,0.056875,0.082397,0.090116,0.058274,0.029134,0.008813,0.000548,-0.001079,0.000770,-0.000238,-0.004703,-0.008734,-0.007001,-0.004693,-0.000319,-0.000735,0.000000,0.000000,0.000000,0.000000,-0.000026,-0.000081,0.000223,0.000050,0.019356,0.042237,0.087968,0.121270,0.122620,0.137208,0.149248,0.107868,0.051834,0.018803,-0.005287,-0.007371,-0.002459,-0.013216,-0.025961,-0.032472,-0.027446,-0.017086,0.008371,0.009405,0.000000,0.000000,0.000000,-0.000000,-0.000010,-0.000283,-0.000298,-0.001176,0.013913,0.033745,0.112436,0.177905,0.189607,0.212822,0.208582,0.134215,0.051034,-0.001240,-0.012093,-0.014636,-0.033745,-0.035600,-0.064666,-0.068295,-0.044604,0.015194,0.063355,0.051920,-0.001934,0.000089,0.000000,-0.000000,-0.000002,-0.000306,-0.006211,0.012651,0.036027,0.082742,0.151672,0.164882,0.185116,0.152951,0.153358,0.082353,0.052253,-0.032297,-0.052058,-0.058832,-0.102353,-0.119762,-0.119699,-0.109487,-0.026918,0.066427,0.150359,0.072958,-0.009717,0.000276,0.000000,-0.000015,-0.000181,-0.000809,-0.006636,0.007508,0.061325,0.151994,0.195135,0.137085,0.098928,0.089988,0.071988,0.043887,-0.010417,-0.033511,-0.046660,-0.110906,-0.200034,-0.215023,-0.215847,-0.160298,-0.034049,0.125112,0.193685,0.094313,-0.007528,0.000458,0.000000,-0.000142,-0.001038,-0.004115,-0.015422,-0.000592,0.066876,0.178871,0.253288,0.108615,0.064000,0.067108,0.115051,0.049562,-0.042092,-0.095866,-0.065338,-0.164277,-0.230683,-0.269028,-0.255665,-0.181126,0.011786,0.170669,0.205436,0.149220,0.020606,0.001563,0.000000,-0.000978,-0.002430,-0.009531,-0.031417,-0.012152,0.108632,0.204003,0.209534,0.078102,-0.035925,-0.002992,0.113161,-0.009567,-0.119579,-0.198630,-0.161808,-0.196266,-0.268202,-0.261223,-0.237599,-0.174863,-0.043790,0.026536,0.179975,0.233369,0.065084,0.004614,0.000000,-0.000900,-0.003091,-0.013520,-0.052636,-0.049378,0.095593,0.229866,0.163198,0.037380,0.007080,0.075452,0.035133,-0.058837,-0.200183,-0.262296,-0.207494,-0.225990,-0.284074,-0.264020,-0.247305,-0.197628,-0.095253,0.013347,0.154438,0.257876,0.095513,0.006186,0.000000,-0.000557,-0.004799,-0.022315,-0.077539,-0.105435,0.111616,0.257821,0.140086,0.024762,0.030878,0.096794,-0.028267,-0.167126,-0.311096,-0.338209,-0.330184,-0.325859,-0.310187,-0.262898,-0.216766,-0.168229,-0.072229,0.001095,0.155343,0.212042,0.104565,0.018838,0.000000,-0.001492,-0.010044,-0.035650,-0.106631,-0.165632,0.096063,0.234614,0.228454,0.135770,0.018095,0.081879,-0.152285,-0.413644,-0.520866,-0.455596,-0.410947,-0.269901,-0.203502,-0.170341,-0.150895,-0.106589,-0.126577,-0.075766,0.103364,0.258563,0.126267,0.013503,-0.000001,-0.003545,-0.008832,-0.031589,-0.128407,-0.196552,0.019668,0.222261,0.269317,0.191785,0.014409,0.006798,-0.355460,-0.642379,-0.677285,-0.532196,-0.301529,-0.128669,-0.070475,-0.043065,-0.026742,-0.058890,-0.124354,-0.108820,0.101854,0.253691,0.114186,0.016023,-0.000002,-0.001152,-0.005938,-0.031454,-0.144330,-0.245573,-0.093988,0.111743,0.139798,0.161797,0.166626,0.076057,-0.402484,-0.656942,-0.566010,-0.375979,-0.163467,0.045726,0.101356,0.062977,0.023679,-0.061340,-0.144360,-0.076953,0.130533,0.243412,0.176544,0.044925,-0.000001,-0.000526,-0.008657,-0.032705,-0.153350,-0.293535,-0.138083,0.012080,0.152218,0.241713,0.282314,0.220219,-0.149751,-0.284820,-0.237904,-0.162018,-0.072517,0.104898,0.103126,0.100274,0.038135,-0.087088,-0.067761,-0.003298,0.118357,0.256209,0.202967,0.049833,-0.000000,-0.000838,-0.009599,-0.035512,-0.150000,-0.303061,-0.097908,0.049724,0.217909,0.295259,0.423060,0.365693,0.200316,0.052569,-0.010995,0.035600,0.098540,0.064292,-0.006954,-0.068048,-0.099892,-0.108830,-0.037537,0.029430,0.107482,0.253946,0.211896,0.046136,0.000000,-0.001026,-0.007087,-0.031818,-0.141328,-0.275186,-0.083084,0.130394,0.260497,0.373413,0.538314,0.449102,0.362560,0.177427,0.068732,0.052975,0.124978,0.023754,-0.076344,-0.189809,-0.205975,-0.146623,-0.100115,-0.017193,0.095769,0.213172,0.182677,0.049262,0.000000,-0.000504,-0.004687,-0.025083,-0.115606,-0.257651,-0.090838,0.178737,0.243022,0.357967,0.386755,0.371570,0.307473,0.147952,0.214477,0.355450,0.284640,0.085222,-0.057672,-0.190176,-0.253723,-0.219191,-0.137438,-0.038454,0.064166,0.178308,0.172481,0.053869,0.000000,-0.000300,-0.003014,-0.021135,-0.089189,-0.230482,-0.130514,0.163702,0.268232,0.238889,0.302381,0.313993,0.215063,0.124674,0.315979,0.410575,0.246004,0.084033,-0.082540,-0.206561,-0.314996,-0.254092,-0.203882,-0.115935,-0.028382,0.113758,0.126073,0.056594,0.000000,-0.000093,-0.002754,-0.013655,-0.065966,-0.210667,-0.126890,0.090291,0.178596,0.231933,0.276813,0.196897,0.069658,0.081373,0.338676,0.341175,0.239402,0.022114,-0.096659,-0.171260,-0.281196,-0.297675,-0.230044,-0.174435,-0.076932,0.019298,0.051574,0.031775,0.000000,-0.000053,-0.001691,-0.011333,-0.051521,-0.179955,-0.118144,0.064985,0.138090,0.159568,0.258259,0.213928,0.097054,0.086417,0.200558,0.306234,0.184430,0.030801,-0.097313,-0.238976,-0.322129,-0.288335,-0.241714,-0.197050,-0.101388,-0.040031,-0.005057,0.007518,0.000000,-0.000011,-0.000716,-0.006770,-0.030936,-0.116859,-0.076749,0.013261,0.034271,0.150184,0.251734,0.162096,0.036639,0.023584,0.143712,0.256708,0.154985,-0.019870,-0.159291,-0.278722,-0.288254,-0.242716,-0.204249,-0.164360,-0.102999,-0.045788,-0.005386,0.000929,0.000000,-0.000003,-0.000394,-0.003354,-0.021380,-0.080558,-0.089108,0.012500,0.052219,0.071615,0.097457,0.071336,-0.003516,0.011104,0.153627,0.209671,0.050975,-0.041462,-0.154330,-0.221379,-0.214627,-0.175811,-0.119658,-0.092313,-0.075035,-0.023638,0.007046,0.006369,0.000000,-0.000004,-0.000177,-0.001563,-0.009825,-0.047262,-0.081983,-0.034341,-0.007914,-0.047567,-0.072435,-0.038400,-0.024900,0.016710,0.106142,0.081336,-0.014158,-0.046473,-0.126489,-0.131044,-0.102995,-0.085960,-0.063828,-0.062938,-0.061573,-0.018678,-0.000843,0.002413,0.000000,0.000000,-0.000095,-0.000810,-0.004028,-0.018520,-0.045354,-0.050462,-0.073658,-0.068560,-0.071164,-0.050085,-0.023116,0.019872,0.026059,0.011832,-0.016314,-0.011626,-0.071863,-0.041132,-0.028451,-0.022897,-0.019972,-0.024506,-0.024809,-0.001511,-0.000008,0.000000,0.000000,0.000000,-0.000005,-0.000111,-0.000940,-0.006396,-0.022569,-0.035535,-0.043623,-0.033310,-0.026020,-0.018879,0.004038,0.012281,0.005531,-0.014053,-0.019156,-0.002529,-0.010901,-0.007816,-0.006330,-0.007295,-0.007613,-0.008296,-0.010191,-0.000204,0.000021,0.000000,0.000000,0.000000,0.000000,-0.000000,-0.000158,-0.002602,-0.007483,-0.007463,-0.010590,-0.004438,-0.003134,-0.005705,0.004622,0.000156,-0.001420,-0.002197,-0.001828,0.005035,0.003940,-0.001703,-0.001134,-0.000850,-0.000120,-0.000071,-0.000007,-0.000006,0.000000,0.000000,0.000000,0.000000,0.000000,0.000000,-0.000005,-0.000108,-0.000333,-0.000419,-0.001243,0.007229,0.001448,-0.000121,0.002550,-0.000682,-0.000009,-0.000192,-0.000096,-0.000239,-0.000018,-0.000000,-0.000001,-0.000000,-0.000000,0.000000,0.000000,0.000000,0.000000,0.000000};
 float weights8[28][28] = { 0.000000,0.000000,0.000000,0.000000,0.000000,0.000000,0.000000,0.000000,-0.000003,-0.000023,-0.000033,-0.000028,-0.000013,-0.000003,-0.000328,-0.000110,-0.000013,0.000000,-0.000045,-0.000004,0.000000,-0.000005,-0.000005,0.000000,0.000000,0.000000,0.000000,0.000000,0.000000,0.000000,0.000000,0.000000,-0.000000,0.000000,-0.000007,-0.000920,-0.001479,-0.001885,-0.001864,-0.001935,-0.000801,-0.000106,-0.000269,-0.000551,-0.000287,-0.000230,-0.000035,-0.000576,-0.000840,-0.000057,-0.000002,0.000000,0.000000,0.000000,0.000000,0.000000,0.000000,0.000000,-0.000000,-0.000014,0.000086,-0.000117,-0.001069,-0.002613,-0.005716,-0.011281,-0.009747,-0.006138,-0.003973,-0.000940,-0.000466,-0.001062,-0.002339,-0.002926,-0.003628,-0.004366,-0.005688,-0.005653,-0.004503,-0.001286,-0.000088,-0.000076,0.000000,0.000000,0.000000,0.000000,-0.000009,-0.000053,-0.000230,-0.005007,-0.014661,-0.013899,-0.009249,-0.011084,-0.024429,-0.020105,-0.002454,-0.000651,-0.007931,-0.010017,-0.010234,-0.021074,-0.044087,-0.059004,-0.057981,-0.040977,-0.024639,-0.013659,-0.012282,-0.003165,0.000000,0.000000,0.000000,-0.000000,-0.000016,-0.000161,-0.001837,-0.013553,-0.027830,-0.016983,-0.000422,0.013307,0.038740,0.017719,-0.005265,-0.028749,-0.050301,-0.052741,-0.068367,-0.083821,-0.121432,-0.109855,-0.087295,-0.073645,-0.076619,-0.083663,-0.069366,-0.037532,-0.005900,-0.000024,0.000000,-0.000001,-0.000006,-0.000917,-0.008916,-0.029293,-0.045170,-0.041356,0.019448,0.074222,0.085875,0.102864,0.064446,-0.023376,-0.076089,-0.134043,-0.167165,-0.176233,-0.131042,-0.041325,-0.044233,-0.045091,-0.120727,-0.214217,-0.166724,-0.071673,-0.013167,-0.000063,0.000000,-0.000002,-0.000131,-0.002183,-0.021610,-0.052113,-0.077947,-0.027143,0.089302,0.139728,0.154029,0.170438,0.075991,-0.045465,-0.164628,-0.210629,-0.183196,-0.153199,-0.069304,0.040886,0.074544,0.064998,-0.044220,-0.249687,-0.226241,-0.083672,-0.021479,-0.000086,0.000000,-0.000033,-0.001060,-0.008118,-0.040864,-0.066422,-0.062299,0.032443,0.133955,0.135753,0.177413,0.247587,0.143761,-0.065083,-0.266117,-0.229900,-0.089972,0.013008,0.035983,0.079541,0.182266,0.136604,0.061063,-0.140676,-0.209431,-0.117134,-0.021396,-0.000165,0.000000,-0.000607,-0.002938,-0.015691,-0.045157,-0.076958,-0.013709,0.077120,0.066602,0.123501,0.174287,0.235266,0.103356,-0.090604,-0.283954,-0.197363,0.053723,0.176897,0.142361,0.106476,0.098076,0.063448,0.054528,0.046238,-0.070926,-0.159958,-0.026277,-0.000260,0.000000,-0.001010,-0.006437,-0.026725,-0.051707,-0.059912,-0.015771,0.026793,0.095443,0.153513,0.199299,0.256000,0.103152,-0.031777,-0.222632,-0.108655,0.068012,0.255791,0.212484,0.158925,0.001409,0.049027,-0.005962,0.033733,-0.027983,-0.160420,-0.038252,-0.000545,0.000000,-0.000753,-0.009657,-0.038191,-0.048562,-0.062810,-0.028259,0.037091,0.070067,0.149004,0.216275,0.185264,-0.046874,-0.155228,-0.093782,-0.062050,0.021133,0.093444,0.184755,0.126632,0.015006,-0.024507,-0.021485,-0.003004,0.015004,-0.095357,-0.054919,-0.004259,0.000000,-0.000460,-0.012500,-0.055622,-0.014451,0.045801,0.056038,-0.023848,0.022377,0.118090,0.172364,0.124842,-0.040505,0.006945,0.124446,-0.002356,0.049417,0.222164,0.271585,-0.003637,-0.101317,-0.026574,0.078304,0.065904,0.091155,-0.096818,-0.055906,-0.003171,-0.000048,-0.000724,-0.014396,-0.072555,0.055693,0.139938,0.100931,-0.052708,0.116628,0.085980,0.116515,0.150363,0.135753,0.211965,0.240992,0.194007,0.286981,0.319712,0.172861,0.017090,0.012237,0.014497,0.131070,0.151663,0.097914,-0.133130,-0.066801,-0.003122,-0.000106,-0.000869,-0.018702,-0.092169,0.053231,0.134510,-0.005945,-0.050633,0.102033,0.002560,0.041371,0.209696,0.324523,0.281403,0.286450,0.305355,0.161090,0.113464,-0.010455,-0.090708,0.009473,0.066615,0.166637,0.252701,0.069227,-0.122880,-0.066797,-0.002555,-0.000002,-0.001373,-0.023506,-0.114547,0.114662,0.139947,0.021379,-0.095862,-0.064223,-0.174773,-0.098273,0.214372,0.173675,0.044151,0.128382,0.183201,-0.018415,-0.056146,-0.147104,-0.123718,-0.077082,-0.002144,0.134480,0.210501,0.089258,-0.039041,-0.063691,-0.004436,-0.000000,-0.001492,-0.026460,-0.109599,0.095276,0.117773,0.158004,0.070171,-0.075716,-0.296474,-0.264248,-0.041713,0.029672,0.157264,0.109767,0.058067,-0.003957,-0.091035,-0.089258,-0.067080,-0.003334,-0.015437,0.065556,0.212417,0.128364,0.035088,-0.060404,-0.003752,0.000000,-0.002160,-0.027293,-0.110297,0.019400,0.130907,0.126601,0.023636,-0.014019,-0.183373,-0.272655,-0.166271,0.003134,0.081629,-0.008511,-0.037743,-0.006831,0.019758,-0.134743,-0.091494,-0.144274,-0.078771,0.003495,0.199442,0.162898,0.027319,-0.052471,-0.002475,0.000000,-0.002017,-0.022109,-0.104163,-0.047000,0.129751,0.076953,-0.065974,-0.028310,-0.073166,-0.162392,-0.125950,-0.017204,-0.038179,-0.013424,-0.124916,-0.093053,-0.123685,-0.120541,-0.035209,-0.072602,-0.032895,0.014363,0.095353,0.043037,0.024046,-0.039227,-0.003440,0.000000,-0.001219,-0.012752,-0.064933,-0.056033,0.017089,-0.035851,0.029890,0.037379,0.020599,0.055438,-0.025137,-0.009032,0.024567,-0.064512,-0.163029,-0.232654,-0.207551,-0.054731,0.034854,-0.004710,-0.006443,0.013197,0.091107,0.108269,0.011997,-0.030652,-0.004204,0.000000,-0.000318,-0.015858,-0.067694,-0.057884,0.033248,0.071827,-0.021901,0.085956,0.095397,0.102250,0.025954,0.114482,0.029632,-0.088213,-0.198488,-0.277951,-0.138397,-0.029815,0.051615,0.023247,0.008858,-0.044393,0.063603,0.137611,0.001512,-0.020723,-0.002543,0.000000,-0.000427,-0.006724,-0.041395,-0.042768,0.034420,0.054213,0.041558,0.032782,0.079099,0.017664,0.078217,0.215749,0.084561,-0.175007,-0.270771,-0.262647,-0.111484,-0.014103,0.053998,0.073425,0.060394,-0.008030,0.066515,0.050369,-0.011494,-0.011079,-0.001905,0.000000,-0.000409,-0.004667,-0.016183,-0.085343,-0.038882,0.011982,0.086320,0.090719,0.103865,0.095393,0.187097,0.257134,0.007229,-0.186629,-0.269474,-0.246553,-0.117679,-0.076621,0.016800,0.094378,0.053950,0.050865,0.022219,-0.014952,-0.021157,-0.006117,-0.000717,0.000000,-0.000066,-0.003635,-0.002725,-0.097773,-0.098539,-0.009886,0.083776,0.174113,0.184423,0.165998,0.252764,0.224978,0.035851,-0.187906,-0.222623,-0.214450,-0.136281,-0.038437,0.078207,0.102208,0.068973,-0.008193,-0.008657,-0.023839,-0.013434,-0.001517,-0.000732,0.000000,-0.000019,-0.002324,0.003999,-0.080186,-0.100646,0.029165,0.178041,0.207360,0.172624,0.150673,0.212832,0.197809,0.042211,-0.139347,-0.177917,-0.131195,-0.082162,-0.047696,0.014264,0.013117,-0.033564,-0.038088,-0.003153,-0.016519,-0.003816,-0.000146,-0.000144,0.000000,0.000000,-0.001229,-0.003687,-0.020096,-0.041330,0.002561,0.108612,0.136035,0.059081,0.020634,0.127200,0.135213,0.023006,-0.071279,-0.102911,-0.099444,-0.063023,-0.061536,-0.049219,-0.059130,-0.060441,-0.032609,-0.014146,-0.011942,-0.001391,-0.000006,0.000000,0.000000,0.000000,-0.000241,-0.001086,0.004918,0.015019,0.011174,-0.010088,0.000628,-0.020785,-0.049161,0.021604,0.040679,0.006817,-0.003873,-0.017693,-0.047179,-0.065034,-0.056659,-0.046415,-0.030703,-0.015098,-0.006587,-0.004605,-0.003824,-0.000546,-0.000003,0.000000,0.000000,0.000000,0.000000,-0.001018,0.003281,-0.004587,-0.010329,-0.009535,0.008768,0.019120,-0.002690,0.019358,0.007490,-0.003713,-0.005323,-0.009929,-0.015941,-0.014295,-0.007088,-0.008557,-0.006330,-0.002553,-0.000448,-0.001580,-0.000479,-0.000341,0.000000,0.000000,0.000000,0.000000,0.000000,0.000000,-0.000015,-0.001030,-0.001519,-0.000337,0.002696,-0.007566,0.003000,0.002190,-0.001781,-0.002147,-0.000232,-0.001891,-0.001264,-0.000344,-0.000285,-0.000062,-0.000071,-0.000002,-0.000004,0.000000,0.000000,0.000000,0.000000,0.000000};
 float weights9[28][28] = { 0.000000,0.000000,0.000000,0.000000,0.000000,0.000000,0.000000,0.000000,-0.000693,-0.000649,-0.001059,-0.000610,-0.000807,-0.000002,-0.000884,-0.000293,-0.000019,0.000000,0.000144,-0.000000,0.000000,-0.000000,-0.000000,0.000000,0.000000,0.000000,0.000000,0.000000,0.000000,0.000000,0.000000,0.000000,-0.000000,0.000000,-0.000039,-0.001351,-0.002539,-0.003936,-0.005562,-0.008827,-0.010923,-0.005096,-0.001867,-0.000018,-0.000150,-0.000214,-0.000052,-0.001575,-0.001048,-0.000094,-0.000003,0.000000,0.000000,0.000000,0.000000,0.000000,0.000000,0.000000,-0.000000,-0.000001,-0.000001,-0.000004,-0.001182,-0.003825,-0.015168,-0.022667,-0.029908,-0.041068,-0.040755,-0.029236,-0.015780,-0.012099,-0.007614,-0.011503,-0.008320,-0.007620,-0.005763,-0.003324,-0.004445,-0.002403,-0.000294,0.000471,0.000000,0.000000,0.000000,0.000000,-0.000032,-0.000127,-0.000098,-0.001088,-0.005464,-0.018829,-0.053127,-0.057917,-0.058474,-0.049258,-0.027134,-0.006511,0.015730,0.009296,-0.002345,-0.027920,-0.051009,-0.047113,-0.037522,-0.024617,-0.013242,-0.004864,-0.003699,-0.002916,0.000000,0.000000,0.000000,-0.000002,-0.000019,-0.000078,-0.000355,-0.004283,-0.023015,-0.069710,-0.110031,-0.132504,-0.085691,0.009443,0.104684,0.184709,0.149752,0.084494,0.045937,-0.043160,-0.086921,-0.096494,-0.071867,-0.050329,-0.034611,-0.033369,-0.000902,0.005564,0.011870,-0.000061,0.000000,-0.000006,-0.000009,-0.000158,-0.002675,-0.017767,-0.077978,-0.150806,-0.162626,-0.103592,0.010686,0.144206,0.229603,0.272990,0.176646,0.078068,-0.001007,-0.090520,-0.135963,-0.129104,-0.094672,-0.077492,-0.089529,-0.060193,0.005517,0.057432,0.029435,-0.000176,0.000000,-0.000053,-0.000249,-0.000696,-0.004519,-0.041340,-0.119918,-0.199499,-0.151924,-0.005578,0.108758,0.175030,0.225660,0.201874,0.166623,0.042643,-0.059425,-0.099392,-0.137098,-0.159288,-0.176260,-0.148616,-0.133536,-0.081811,0.017191,0.077793,0.055429,0.000449,0.000000,-0.000120,-0.001113,-0.002708,-0.011057,-0.061023,-0.162109,-0.230293,-0.166065,0.000250,0.076852,0.172174,0.184321,0.158674,0.114591,0.060483,0.019667,-0.000182,-0.124325,-0.164977,-0.256691,-0.211332,-0.173221,-0.083833,0.065686,0.109931,0.059783,0.003145,0.000000,-0.000371,-0.001803,-0.005895,-0.021908,-0.081963,-0.174996,-0.152316,-0.016801,0.013750,0.154506,0.277995,0.172650,0.146363,0.106996,0.096491,0.099582,0.066344,-0.053366,-0.178727,-0.268524,-0.217970,-0.114415,-0.017106,0.070779,0.122146,0.072297,0.001629,0.000000,-0.000644,-0.002605,-0.009563,-0.043085,-0.115430,-0.138645,-0.089807,-0.054051,0.020363,0.106905,0.159089,0.230814,0.078919,0.043818,0.025870,0.002721,0.063096,-0.007294,-0.214404,-0.320102,-0.220681,-0.114822,-0.084746,-0.009384,0.096933,0.115577,0.002091,0.000000,-0.000760,-0.004761,-0.015438,-0.058207,-0.081365,-0.078600,-0.031751,-0.024451,0.069740,0.141785,0.215438,0.167240,0.074354,-0.001078,0.044129,0.081074,0.106546,0.080064,-0.207462,-0.370141,-0.265023,-0.107884,-0.014066,0.014313,0.124062,0.147962,0.003258,0.000000,-0.001919,-0.007767,-0.023504,-0.081772,-0.012764,0.028882,0.063201,-0.031768,0.050318,0.169238,0.181450,0.036856,-0.057671,-0.057780,0.024103,0.075981,0.072914,0.034560,-0.243014,-0.404818,-0.304753,-0.101136,-0.054265,-0.024395,0.082212,0.142765,0.001444,-0.000109,-0.003935,-0.012327,-0.033714,-0.115895,-0.026417,0.086564,0.215499,-0.034852,0.037481,0.078217,-0.059662,-0.179404,-0.142585,-0.063410,-0.024092,-0.038750,-0.020468,-0.134346,-0.223767,-0.357645,-0.247123,-0.045395,-0.040926,-0.075013,0.095976,0.200648,0.003089,-0.000243,-0.002084,-0.015244,-0.047624,-0.139748,-0.032935,0.206144,0.343337,0.128113,0.047236,-0.111271,-0.123508,-0.017515,0.036863,-0.018651,-0.114509,-0.180033,-0.111907,-0.119951,-0.152327,-0.149075,-0.185974,-0.114333,-0.097027,-0.108686,0.121603,0.200124,-0.018502,-0.000004,-0.001877,-0.017152,-0.062348,-0.185411,-0.137170,0.212043,0.471740,0.300071,0.140843,-0.043577,-0.050695,0.159635,0.170202,0.024210,-0.130766,-0.115800,-0.057927,0.045857,-0.114622,-0.187045,-0.188692,-0.082929,-0.079560,-0.127038,0.132129,0.227669,-0.004853,-0.000000,-0.003805,-0.018697,-0.072852,-0.232508,-0.205137,0.169089,0.492129,0.271904,0.162626,-0.060959,0.072484,0.207480,0.213400,0.155246,0.121995,0.083856,0.155270,0.053132,-0.119809,-0.162071,-0.205276,-0.191401,-0.192546,-0.059773,0.118175,0.151272,-0.015507,0.000000,-0.007600,-0.020978,-0.067607,-0.245170,-0.319591,0.155950,0.436809,0.172537,0.019507,-0.045805,0.120840,0.252741,0.356351,0.333959,0.267934,0.220897,0.071407,-0.087247,-0.127564,-0.131099,-0.162484,-0.169408,-0.144456,-0.016397,0.184716,0.132972,-0.019729,0.000000,-0.004646,-0.014560,-0.050359,-0.191382,-0.306443,0.113695,0.268626,0.070302,-0.006161,0.037551,0.240847,0.305658,0.334585,0.282288,0.283456,0.162884,0.008030,-0.120427,-0.150970,-0.129903,-0.204773,-0.197078,-0.118748,0.095425,0.215066,0.097816,-0.026471,0.000000,-0.001105,-0.009687,-0.032873,-0.139213,-0.262981,0.071882,0.151069,0.059581,0.043825,0.054524,0.222546,0.299685,0.272227,0.172818,0.101658,0.017025,-0.085328,-0.120692,-0.120920,-0.168304,-0.204338,-0.175696,-0.085499,0.132648,0.243302,0.108456,-0.025784,0.000000,-0.000576,-0.008399,-0.028210,-0.112462,-0.217543,-0.033853,0.056204,-0.038528,-0.020647,-0.005127,0.202410,0.336104,0.310881,0.098106,0.023598,-0.064468,-0.115500,-0.063272,-0.048814,-0.069063,-0.134036,-0.174543,-0.037064,0.162906,0.260968,0.097722,-0.010830,0.000000,-0.000672,-0.005527,-0.021945,-0.083137,-0.202634,-0.086586,0.021179,-0.062433,-0.048169,0.019121,0.305513,0.361343,0.273966,0.124744,0.001100,-0.101270,-0.133939,-0.092086,-0.063723,-0.083577,-0.075820,-0.046876,0.051122,0.209446,0.244183,0.077468,0.003156,0.000000,-0.000320,-0.003558,-0.012939,-0.063455,-0.175136,-0.166558,-0.057525,0.004783,-0.079392,0.027577,0.258277,0.311093,0.223004,0.035509,-0.113145,-0.225058,-0.206314,-0.175845,-0.160163,-0.136173,-0.059163,0.007493,0.124415,0.205584,0.184179,0.045382,0.004126,0.000000,-0.000105,-0.001276,-0.004947,-0.036392,-0.154837,-0.221648,-0.209161,-0.134460,-0.099973,-0.003328,0.154865,0.203928,0.063446,-0.088630,-0.192990,-0.200403,-0.220557,-0.198859,-0.151422,-0.107182,-0.047187,0.043016,0.129327,0.135071,0.067411,0.005343,0.003462,0.000000,-0.000041,-0.000465,-0.002120,-0.016290,-0.098194,-0.196069,-0.236402,-0.202282,-0.165947,-0.082383,-0.018519,0.038376,-0.084669,-0.171065,-0.193818,-0.210786,-0.202521,-0.183662,-0.119012,-0.062279,-0.007841,0.052127,0.071973,0.073687,0.024524,0.001748,-0.000509,0.000000,0.000000,-0.000173,-0.000866,-0.005480,-0.041565,-0.110505,-0.156785,-0.138222,-0.130817,-0.112006,-0.073523,-0.070578,-0.106871,-0.125255,-0.126187,-0.129011,-0.126427,-0.103436,-0.058223,-0.011960,0.014914,0.017065,0.018041,-0.003774,-0.003821,0.000176,0.000000,0.000000,0.000000,-0.000013,-0.000124,-0.001440,-0.011834,-0.039624,-0.059819,-0.061017,-0.058652,-0.053790,-0.035575,-0.035371,-0.051037,-0.039952,-0.039067,-0.039932,-0.029732,-0.026194,-0.014838,0.001091,-0.003009,-0.001904,-0.003523,-0.006863,-0.001734,-0.000008,0.000000,0.000000,0.000000,0.000000,-0.000002,-0.000253,-0.001957,-0.010930,-0.013368,-0.012755,-0.016801,-0.015426,-0.009797,-0.010102,-0.012592,-0.004421,-0.012705,-0.008630,-0.004348,-0.001328,-0.003575,-0.002374,-0.003582,-0.000949,-0.001226,-0.002826,-0.002996,0.000000,0.000000,0.000000,0.000000,0.000000,0.000000,-0.000018,-0.000029,-0.000213,-0.000541,-0.001446,-0.000864,-0.001372,-0.000582,-0.000461,-0.000592,-0.000015,-0.000899,-0.000232,-0.000400,-0.000149,-0.000001,-0.000003,-0.000000,-0.000000,0.000000,0.000000,0.000000,0.000000,0.000000};
